#mdl#2#9695
#rdr#33/11/0
1:b,
22:u:code-1LLLLL=%X[-5,0],
22:u:code-1LLLL =%X[-4,0],
22:u:code-1LLL  =%X[-3,0],
22:u:code-1LL   =%X[-2,0],
22:u:code-1L    =%X[-1,0],
21:u:code-1X    =%X[0,0],
21:u:code-1R    =%X[1,0],
21:u:code-1RR   =%X[2,0],
21:u:code-1RRR  =%X[3,0],
21:u:code-1RRRR =%X[4,0],
21:u:code-1RRRRR=%X[5,0],
21:u:cat-1LLLLL=%X[-5,1],
21:u:cat-1LLLL =%X[-4,1],
21:u:cat-1LLL  =%X[-3,1],
21:u:cat-1LL   =%X[-2,1],
21:u:cat-1L    =%X[-1,1],
20:u:cat-1X    =%X[0,1],
20:u:cat-1R    =%X[1,1],
20:u:cat-1RR   =%X[2,1],
20:u:cat-1RRR  =%X[3,1],
20:u:cat-1RRRR =%X[4,1],
20:u:cat-1RRRRR=%X[5,1],
13:*100:%x[ 0,2],
13:*100:%x[ 0,3],
13:*100:%x[ 0,4],
13:*100:%x[ 0,5],
13:*100:%x[ 0,6],
13:*100:%x[ 0,7],
13:*100:%x[ 0,8],
13:*100:%x[ 0,9],
14:*100:%x[ 0,10],
14:*100:%x[ 0,11],
#qrk#4
1:S,
1:I,
1:T,
1:O,
#qrk#2470
1:b,
18:u:code-1LLLLL=_x-#,
18:u:code-1LLLL =_x-4,
18:u:code-1LLL  =_x-3,
18:u:code-1LL   =_x-2,
18:u:code-1L    =_x-1,
16:u:code-1X    =79,
17:u:code-1R    =108,
17:u:code-1RR   =105,
17:u:code-1RRR  =106,
16:u:code-1RRRR =58,
16:u:code-1RRRRR=32,
17:u:cat-1LLLLL=_x-#,
17:u:cat-1LLLL =_x-4,
17:u:cat-1LLL  =_x-3,
17:u:cat-1LL   =_x-2,
17:u:cat-1L    =_x-1,
15:u:cat-1X    =lu,
15:u:cat-1R    =ll,
15:u:cat-1RR   =ll,
15:u:cat-1RRR  =ll,
15:u:cat-1RRRR =po,
15:u:cat-1RRRRR=zs,
10:*100:172:T,
10:*100:169:T,
10:*100:179:T,
9:*100:89:T,
9:*100:66:F,
9:*100:69:F,
10:*100:208:F,
10:*100:108:F,
9:*100:13:F,
10:*100:371:F,
18:u:code-1LLLLL=_x-4,
18:u:code-1LLLL =_x-3,
18:u:code-1LLL  =_x-2,
18:u:code-1LL   =_x-1,
16:u:code-1L    =79,
17:u:code-1X    =108,
17:u:code-1R    =105,
17:u:code-1RR   =106,
16:u:code-1RRR  =58,
16:u:code-1RRRR =32,
16:u:code-1RRRRR=39,
17:u:cat-1LLLLL=_x-4,
17:u:cat-1LLLL =_x-3,
17:u:cat-1LLL  =_x-2,
17:u:cat-1LL   =_x-1,
15:u:cat-1L    =lu,
15:u:cat-1X    =ll,
15:u:cat-1RRR  =po,
15:u:cat-1RRRR =zs,
15:u:cat-1RRRRR=po,
10:*100:202:T,
9:*100:13:T,
9:*100:90:T,
10:*100:188:F,
10:*100:153:F,
10:*100:171:F,
10:*100:240:F,
10:*100:391:F,
10:*100:395:F,
18:u:code-1LLLLL=_x-3,
18:u:code-1LLLL =_x-2,
18:u:code-1LLL  =_x-1,
16:u:code-1LL   =79,
17:u:code-1L    =108,
17:u:code-1X    =105,
17:u:code-1R    =106,
16:u:code-1RR   =58,
16:u:code-1RRR  =32,
16:u:code-1RRRR =39,
17:u:cat-1LLLLL=_x-3,
17:u:cat-1LLLL =_x-2,
17:u:cat-1LLL  =_x-1,
15:u:cat-1LL   =lu,
15:u:cat-1L    =ll,
15:u:cat-1RR   =po,
15:u:cat-1RRR  =zs,
9:*100:27:T,
10:*100:340:T,
9:*100:46:T,
9:*100:98:T,
8:*100:4:T,
10:*100:204:T,
10:*100:373:F,
10:*100:146:F,
10:*100:280:F,
18:u:code-1LLLLL=_x-2,
18:u:code-1LLLL =_x-1,
16:u:code-1LLL  =79,
17:u:code-1LL   =108,
17:u:code-1L    =105,
17:u:code-1X    =106,
16:u:code-1R    =58,
16:u:code-1RR   =32,
16:u:code-1RRR  =39,
16:u:code-1RRRRR=72,
17:u:cat-1LLLLL=_x-2,
17:u:cat-1LLLL =_x-1,
15:u:cat-1LLL  =lu,
15:u:cat-1LL   =ll,
15:u:cat-1R    =po,
15:u:cat-1RR   =zs,
15:u:cat-1RRRRR=lu,
10:*100:245:T,
10:*100:107:T,
10:*100:342:T,
10:*100:278:T,
10:*100:387:T,
10:*100:160:T,
9:*100:12:T,
9:*100:53:T,
9:*100:75:F,
18:u:code-1LLLLL=_x-1,
16:u:code-1LLLL =79,
17:u:code-1LLL  =108,
17:u:code-1LL   =105,
17:u:code-1L    =106,
16:u:code-1X    =58,
16:u:code-1R    =32,
16:u:code-1RR   =39,
16:u:code-1RRRR =72,
17:u:code-1RRRRR=101,
17:u:cat-1LLLLL=_x-1,
15:u:cat-1LLLL =lu,
15:u:cat-1LLL  =ll,
15:u:cat-1X    =po,
15:u:cat-1R    =zs,
15:u:cat-1RRRR =lu,
15:u:cat-1RRRRR=ll,
10:*100:165:T,
9:*100:43:T,
9:*100:63:T,
9:*100:76:F,
10:*100:132:F,
10:*100:116:F,
9:*100:27:F,
9:*100:49:F,
16:u:code-1LLLLL=79,
17:u:code-1LLLL =108,
17:u:code-1LLL  =105,
17:u:code-1LL   =106,
16:u:code-1L    =58,
16:u:code-1X    =32,
16:u:code-1R    =39,
16:u:code-1RRR  =72,
17:u:code-1RRRR =101,
17:u:code-1RRRRR=116,
15:u:cat-1LLLLL=lu,
15:u:cat-1LLLL =ll,
15:u:cat-1L    =po,
15:u:cat-1X    =zs,
15:u:cat-1RRR  =lu,
15:u:cat-1RRRR =ll,
10:*100:161:T,
10:*100:269:T,
10:*100:353:T,
10:*100:239:F,
10:*100:225:F,
9:*100:93:F,
10:*100:327:F,
10:*100:398:F,
17:u:code-1LLLLL=108,
17:u:code-1LLLL =105,
17:u:code-1LLL  =106,
16:u:code-1LL   =58,
16:u:code-1L    =32,
16:u:code-1X    =39,
16:u:code-1RR   =72,
17:u:code-1RRR  =101,
17:u:code-1RRRR =116,
15:u:cat-1LLLLL=ll,
15:u:cat-1LL   =po,
15:u:cat-1L    =zs,
15:u:cat-1RR   =lu,
10:*100:185:T,
10:*100:108:T,
10:*100:162:F,
10:*100:172:F,
10:*100:201:F,
10:*100:232:F,
10:*100:299:F,
10:*100:186:F,
17:u:code-1LLLLL=105,
17:u:code-1LLLL =106,
16:u:code-1LLL  =58,
16:u:code-1LL   =32,
16:u:code-1L    =39,
16:u:code-1R    =72,
17:u:code-1RR   =101,
17:u:code-1RRR  =116,
17:u:code-1RRRRR=114,
15:u:cat-1LLL  =po,
15:u:cat-1LL   =zs,
15:u:cat-1R    =lu,
10:*100:131:F,
10:*100:261:F,
10:*100:231:F,
9:*100:85:F,
10:*100:323:F,
17:u:code-1LLLLL=106,
16:u:code-1LLLL =58,
16:u:code-1LLL  =32,
16:u:code-1LL   =39,
16:u:code-1X    =72,
17:u:code-1R    =101,
17:u:code-1RR   =116,
17:u:code-1RRRR =114,
15:u:cat-1LLLL =po,
15:u:cat-1LLL  =zs,
10:*100:240:T,
9:*100:95:F,
9:*100:16:F,
10:*100:345:F,
16:u:code-1LLLLL=58,
16:u:code-1LLLL =32,
16:u:code-1LLL  =39,
16:u:code-1L    =72,
17:u:code-1X    =101,
17:u:code-1R    =116,
17:u:code-1RRR  =114,
17:u:code-1RRRRR=107,
15:u:cat-1LLLLL=po,
15:u:cat-1LLLL =zs,
9:*100:80:T,
10:*100:351:T,
9:*100:53:F,
10:*100:154:F,
9:*100:36:F,
16:u:code-1LLLLL=32,
16:u:code-1LLLL =39,
16:u:code-1LL   =72,
17:u:code-1L    =101,
17:u:code-1X    =116,
17:u:code-1RR   =114,
17:u:code-1RRRR =107,
15:u:cat-1LLLLL=zs,
9:*100:47:T,
10:*100:128:T,
10:*100:182:T,
10:*100:386:T,
10:*100:176:T,
10:*100:341:F,
9:*100:44:F,
10:*100:235:F,
16:u:code-1LLLLL=39,
16:u:code-1LLL  =72,
17:u:code-1LL   =101,
17:u:code-1L    =116,
17:u:code-1R    =114,
17:u:code-1RRR  =107,
17:u:code-1RRRRR=110,
10:*100:126:T,
10:*100:156:T,
10:*100:301:T,
10:*100:248:T,
9:*100:68:F,
9:*100:88:F,
10:*100:255:F,
16:u:code-1LLLL =72,
17:u:code-1LLL  =101,
17:u:code-1LL   =116,
17:u:code-1X    =114,
17:u:code-1RR   =107,
17:u:code-1RRRR =110,
17:u:code-1RRRRR=105,
10:*100:299:T,
10:*100:193:T,
10:*100:141:F,
10:*100:385:F,
10:*100:396:F,
16:u:code-1LLLLL=72,
17:u:code-1LLLL =101,
17:u:code-1LLL  =116,
17:u:code-1L    =114,
17:u:code-1R    =107,
17:u:code-1RRR  =110,
17:u:code-1RRRR =105,
10:*100:344:T,
10:*100:268:T,
10:*100:152:T,
10:*100:211:F,
10:*100:288:F,
10:*100:190:F,
10:*100:368:F,
10:*100:103:F,
10:*100:187:F,
17:u:code-1LLLLL=101,
17:u:code-1LLLL =116,
17:u:code-1LL   =114,
17:u:code-1X    =107,
17:u:code-1RR   =110,
17:u:code-1RRR  =105,
17:u:code-1RRRRR=103,
9:*100:62:T,
10:*100:110:T,
10:*100:148:T,
9:*100:38:T,
10:*100:218:F,
10:*100:274:F,
10:*100:378:F,
10:*100:182:F,
10:*100:134:F,
17:u:code-1LLLLL=116,
17:u:code-1LLL  =114,
17:u:code-1L    =107,
17:u:code-1R    =110,
17:u:code-1RRRR =103,
10:*100:150:T,
9:*100:26:T,
10:*100:294:T,
10:*100:356:T,
10:*100:123:T,
8:*100:5:T,
10:*100:241:T,
10:*100:203:T,
10:*100:112:F,
17:u:code-1LLLL =114,
17:u:code-1LL   =107,
17:u:code-1X    =110,
17:u:code-1RRR  =103,
10:*100:365:T,
10:*100:354:T,
9:*100:28:T,
10:*100:266:T,
10:*100:352:T,
10:*100:350:T,
10:*100:312:F,
10:*100:375:F,
17:u:code-1LLLLL=114,
17:u:code-1LLL  =107,
17:u:code-1L    =110,
17:u:code-1RR   =103,
17:u:code-1RRRRR=106,
9:*100:77:T,
9:*100:10:T,
10:*100:318:T,
10:*100:328:T,
10:*100:238:T,
10:*100:397:F,
9:*100:71:F,
10:*100:177:F,
17:u:code-1LLLL =107,
17:u:code-1LL   =110,
17:u:code-1R    =103,
17:u:code-1RRRR =106,
17:u:code-1RRRRR=100,
10:*100:302:T,
10:*100:189:T,
9:*100:19:T,
10:*100:187:T,
10:*100:129:T,
17:u:code-1LLLLL=107,
17:u:code-1LLL  =110,
17:u:code-1X    =103,
17:u:code-1RRRR =100,
10:*100:180:T,
10:*100:343:T,
10:*100:261:T,
10:*100:231:T,
9:*100:60:T,
9:*100:74:T,
17:u:code-1LLLL =110,
17:u:code-1L    =103,
17:u:code-1RRR  =100,
10:*100:348:T,
10:*100:284:T,
10:*100:213:F,
10:*100:121:F,
10:*100:276:F,
8:*100:3:F,
10:*100:251:F,
10:*100:119:F,
17:u:code-1LLLLL=110,
17:u:code-1LL   =103,
17:u:code-1RR   =100,
10:*100:363:T,
9:*100:61:T,
10:*100:318:F,
10:*100:277:F,
10:*100:306:F,
17:u:code-1LLL  =103,
17:u:code-1R    =100,
10:*100:274:T,
8:*100:0:T,
10:*100:270:T,
10:*100:394:T,
10:*100:330:T,
9:*100:68:T,
9:*100:93:T,
10:*100:189:F,
17:u:code-1LLLL =103,
17:u:code-1X    =100,
17:u:code-1RRRRR=115,
10:*100:277:T,
10:*100:253:T,
9:*100:49:T,
10:*100:396:T,
9:*100:58:T,
10:*100:320:F,
10:*100:210:F,
17:u:code-1LLLLL=103,
17:u:code-1L    =100,
17:u:code-1RRRR =115,
10:*100:239:T,
9:*100:42:T,
10:*100:119:T,
10:*100:312:T,
10:*100:381:T,
10:*100:142:F,
9:*100:17:F,
17:u:code-1LL   =100,
17:u:code-1RRR  =115,
16:u:code-1RRRRR=98,
10:*100:183:T,
10:*100:331:T,
10:*100:304:T,
10:*100:233:F,
10:*100:390:F,
17:u:code-1LLL  =100,
17:u:code-1RR   =115,
16:u:code-1RRRR =98,
10:*100:207:T,
10:*100:177:T,
9:*100:79:F,
9:*100:99:F,
10:*100:150:F,
10:*100:158:F,
17:u:code-1LLLL =100,
17:u:code-1R    =115,
16:u:code-1RRR  =98,
10:*100:208:T,
10:*100:220:F,
10:*100:313:F,
10:*100:295:F,
10:*100:326:F,
17:u:code-1LLLLL=100,
17:u:code-1X    =115,
16:u:code-1RR   =98,
17:u:code-1RRRRR=111,
10:*100:168:T,
9:*100:23:F,
10:*100:278:F,
10:*100:117:F,
10:*100:342:F,
17:u:code-1L    =115,
16:u:code-1R    =98,
17:u:code-1RRRR =111,
9:*100:72:T,
10:*100:194:T,
10:*100:197:F,
8:*100:8:F,
9:*100:32:F,
10:*100:376:F,
10:*100:101:F,
10:*100:289:F,
10:*100:238:F,
17:u:code-1LL   =115,
16:u:code-1X    =98,
17:u:code-1RRR  =111,
17:u:code-1RRRRR=108,
9:*100:31:T,
10:*100:359:F,
10:*100:185:F,
10:*100:223:F,
10:*100:164:F,
17:u:code-1LLL  =115,
16:u:code-1L    =98,
17:u:code-1RR   =111,
17:u:code-1RRRR =108,
10:*100:226:T,
10:*100:257:T,
10:*100:290:F,
10:*100:360:F,
17:u:code-1LLLL =115,
16:u:code-1LL   =98,
17:u:code-1R    =111,
17:u:code-1RRR  =108,
9:*100:24:T,
10:*100:341:T,
10:*100:151:T,
9:*100:18:F,
17:u:code-1LLLLL=115,
16:u:code-1LLL  =98,
17:u:code-1X    =111,
17:u:code-1RR   =108,
10:*100:159:T,
10:*100:112:T,
9:*100:20:T,
10:*100:367:T,
10:*100:279:F,
10:*100:174:F,
10:*100:305:F,
10:*100:369:F,
16:u:code-1LLLL =98,
17:u:code-1L    =111,
17:u:code-1RRRRR=109,
9:*100:59:T,
10:*100:210:T,
8:*100:2:T,
10:*100:125:T,
10:*100:332:T,
10:*100:200:T,
9:*100:70:T,
9:*100:78:F,
16:u:code-1LLLLL=98,
17:u:code-1LL   =111,
17:u:code-1RRRR =109,
9:*100:97:T,
10:*100:319:T,
10:*100:184:T,
9:*100:82:T,
10:*100:288:T,
17:u:code-1LLL  =111,
17:u:code-1RRR  =109,
17:u:code-1RRRRR=104,
10:*100:321:T,
10:*100:190:T,
10:*100:336:F,
10:*100:281:F,
10:*100:317:F,
17:u:code-1LLLL =111,
17:u:code-1RR   =109,
17:u:code-1RRRR =104,
9:*100:55:F,
9:*100:54:F,
10:*100:296:F,
10:*100:382:F,
17:u:code-1LLLLL=111,
17:u:code-1R    =109,
17:u:code-1RRR  =104,
10:*100:220:T,
9:*100:85:T,
10:*100:357:F,
9:*100:31:F,
17:u:code-1X    =109,
17:u:code-1RR   =104,
9:*100:87:F,
9:*100:84:F,
10:*100:254:F,
17:u:code-1L    =109,
17:u:code-1R    =104,
16:u:code-1RRRRR=97,
10:*100:131:T,
9:*100:54:T,
10:*100:170:T,
10:*100:123:F,
17:u:code-1LL   =109,
17:u:code-1X    =104,
16:u:code-1RRRR =97,
17:u:code-1RRRRR=117,
10:*100:164:T,
17:u:code-1LLL  =109,
17:u:code-1L    =104,
16:u:code-1RRR  =97,
17:u:code-1RRRR =117,
10:*100:321:F,
10:*100:364:F,
10:*100:179:F,
10:*100:120:F,
10:*100:234:F,
17:u:code-1LLLL =109,
17:u:code-1LL   =104,
16:u:code-1RR   =97,
17:u:code-1RRR  =117,
10:*100:204:F,
10:*100:263:F,
17:u:code-1LLLLL=109,
17:u:code-1LLL  =104,
16:u:code-1R    =97,
17:u:code-1RR   =117,
17:u:code-1RRRRR=118,
10:*100:105:F,
10:*100:169:F,
8:*100:1:F,
10:*100:338:F,
17:u:code-1LLLL =104,
16:u:code-1X    =97,
17:u:code-1R    =117,
17:u:code-1RRRR =118,
10:*100:193:F,
17:u:code-1LLLLL=104,
16:u:code-1L    =97,
17:u:code-1X    =117,
17:u:code-1RRR  =118,
9:*100:40:T,
10:*100:102:T,
9:*100:10:F,
10:*100:331:F,
9:*100:57:F,
10:*100:339:F,
10:*100:367:F,
16:u:code-1LL   =97,
17:u:code-1L    =117,
17:u:code-1RR   =118,
9:*100:17:T,
10:*100:271:T,
10:*100:115:T,
10:*100:114:T,
10:*100:333:T,
10:*100:217:T,
16:u:code-1LLL  =97,
17:u:code-1LL   =117,
17:u:code-1R    =118,
10:*100:213:T,
9:*100:96:T,
10:*100:149:T,
9:*100:83:T,
10:*100:235:T,
10:*100:286:T,
10:*100:215:T,
8:*100:1:T,
16:u:code-1LLLL =97,
17:u:code-1LLL  =117,
17:u:code-1X    =118,
10:*100:317:T,
9:*100:11:T,
9:*100:84:T,
10:*100:130:T,
10:*100:241:F,
9:*100:64:F,
16:u:code-1LLLLL=97,
17:u:code-1LLLL =117,
17:u:code-1L    =118,
10:*100:380:T,
10:*100:382:T,
9:*100:92:T,
10:*100:349:F,
17:u:code-1LLLLL=117,
17:u:code-1LL   =118,
9:*100:78:T,
10:*100:135:T,
10:*100:358:T,
9:*100:34:F,
17:u:code-1LLL  =118,
10:*100:349:T,
9:*100:22:T,
10:*100:211:T,
10:*100:284:F,
17:u:code-1LLLL =118,
10:*100:262:T,
10:*100:393:T,
10:*100:324:F,
10:*100:356:F,
17:u:code-1LLLLL=118,
10:*100:375:T,
10:*100:369:T,
10:*100:197:T,
10:*100:216:T,
10:*100:399:T,
10:*100:390:T,
10:*100:361:T,
10:*100:329:T,
9:*100:32:T,
10:*100:308:T,
10:*100:347:T,
10:*100:377:T,
10:*100:125:F,
9:*100:23:T,
10:*100:237:F,
17:u:code-1RRRRR=112,
10:*100:372:F,
10:*100:248:F,
10:*100:207:F,
10:*100:109:F,
17:u:code-1RRRR =112,
10:*100:359:T,
17:u:code-1RRR  =112,
10:*100:279:T,
9:*100:14:F,
10:*100:381:F,
9:*100:30:F,
9:*100:80:F,
10:*100:159:F,
17:u:code-1RR   =112,
9:*100:41:F,
9:*100:15:F,
10:*100:184:F,
17:u:code-1R    =112,
10:*100:201:T,
9:*100:69:T,
10:*100:178:F,
17:u:code-1X    =112,
10:*100:191:T,
9:*100:14:T,
17:u:code-1L    =112,
9:*100:21:T,
10:*100:163:T,
10:*100:142:T,
9:*100:43:F,
10:*100:139:F,
10:*100:386:F,
17:u:code-1LL   =112,
10:*100:244:T,
9:*100:39:T,
10:*100:269:F,
10:*100:267:F,
17:u:code-1LLL  =112,
9:*100:16:T,
9:*100:65:T,
10:*100:225:T,
10:*100:346:T,
10:*100:149:F,
10:*100:106:F,
17:u:code-1LLLL =112,
9:*100:25:F,
10:*100:384:F,
17:u:code-1LLLLL=112,
10:*100:186:T,
10:*100:214:T,
9:*100:35:T,
10:*100:196:F,
9:*100:96:F,
9:*100:12:F,
10:*100:137:T,
10:*100:140:F,
10:*100:308:F,
10:*100:199:T,
9:*100:94:T,
10:*100:337:T,
10:*100:144:F,
10:*100:173:T,
10:*100:320:T,
10:*100:366:T,
10:*100:259:T,
10:*100:338:T,
10:*100:379:T,
10:*100:328:F,
9:*100:86:F,
10:*100:141:T,
10:*100:196:T,
10:*100:346:F,
10:*100:134:T,
10:*100:147:F,
9:*100:22:F,
10:*100:305:T,
9:*100:81:F,
9:*100:20:F,
16:u:code-1RRRRR=46,
10:*100:368:T,
10:*100:219:T,
10:*100:217:F,
16:u:code-1RRRR =46,
10:*100:227:T,
16:u:code-1RRR  =46,
16:u:code-1RRRRR=77,
9:*100:51:T,
10:*100:260:T,
16:u:code-1RR   =46,
16:u:code-1RRRR =77,
10:*100:152:F,
10:*100:107:F,
10:*100:348:F,
16:u:code-1R    =46,
16:u:code-1RRR  =77,
9:*100:18:T,
10:*100:183:F,
10:*100:128:F,
16:u:code-1X    =46,
16:u:code-1RR   =77,
9:*100:99:T,
9:*100:77:F,
16:u:code-1L    =46,
16:u:code-1R    =77,
10:*100:323:T,
10:*100:273:F,
10:*100:334:F,
16:u:code-1LL   =46,
16:u:code-1X    =77,
16:u:code-1LLL  =46,
16:u:code-1L    =77,
9:*100:73:T,
10:*100:224:T,
9:*100:91:F,
16:u:code-1LLLL =46,
16:u:code-1LL   =77,
10:*100:221:T,
9:*100:95:T,
10:*100:242:T,
9:*100:48:T,
10:*100:322:F,
9:*100:40:F,
10:*100:229:F,
10:*100:379:F,
16:u:code-1LLLLL=46,
16:u:code-1LLL  =77,
10:*100:327:T,
10:*100:113:T,
10:*100:339:T,
9:*100:33:T,
10:*100:106:T,
10:*100:334:T,
10:*100:293:T,
16:u:code-1LLLL =77,
10:*100:378:T,
9:*100:61:F,
16:u:code-1LLLLL=77,
10:*100:162:T,
8:*100:6:F,
8:*100:3:T,
10:*100:214:F,
10:*100:110:F,
10:*100:135:F,
9:*100:94:F,
9:*100:29:F,
10:*100:325:F,
10:*100:311:T,
10:*100:300:T,
9:*100:37:F,
9:*100:92:F,
10:*100:116:T,
10:*100:281:T,
9:*100:67:T,
10:*100:228:F,
9:*100:76:T,
10:*100:310:T,
10:*100:251:T,
10:*100:398:T,
10:*100:216:F,
10:*100:372:T,
9:*100:15:T,
10:*100:104:T,
10:*100:223:T,
10:*100:285:T,
10:*100:300:F,
10:*100:322:T,
10:*100:237:T,
10:*100:351:F,
10:*100:113:F,
10:*100:246:T,
10:*100:230:T,
8:*100:7:T,
9:*100:55:T,
9:*100:63:F,
10:*100:350:F,
17:u:code-1RRRRR=119,
10:*100:285:F,
17:u:code-1RRRR =119,
9:*100:36:T,
17:u:code-1RRR  =119,
10:*100:117:T,
10:*100:289:T,
10:*100:253:F,
10:*100:365:F,
17:u:code-1RR   =119,
10:*100:105:T,
9:*100:60:F,
10:*100:242:F,
10:*100:283:F,
17:u:code-1R    =119,
9:*100:50:F,
17:u:code-1X    =119,
10:*100:355:T,
9:*100:35:F,
10:*100:212:F,
17:u:code-1L    =119,
16:u:code-1RRRRR=67,
10:*100:236:T,
10:*100:195:T,
10:*100:292:T,
9:*100:24:F,
17:u:code-1LL   =119,
16:u:code-1RRRR =67,
10:*100:133:T,
10:*100:352:F,
10:*100:272:F,
17:u:code-1LLL  =119,
16:u:code-1RRR  =67,
9:*100:44:T,
10:*100:260:F,
17:u:code-1LLLL =119,
16:u:code-1RR   =67,
9:*100:81:T,
17:u:code-1LLLLL=119,
16:u:code-1R    =67,
9:*100:59:F,
10:*100:293:F,
10:*100:133:F,
16:u:code-1X    =67,
16:u:code-1L    =67,
10:*100:178:T,
10:*100:161:F,
16:u:code-1LL   =67,
10:*100:229:T,
9:*100:64:T,
10:*100:247:T,
10:*100:291:F,
10:*100:265:F,
16:u:code-1LLL  =67,
10:*100:127:T,
10:*100:165:F,
10:*100:347:F,
10:*100:377:F,
16:u:code-1LLLL =67,
10:*100:174:T,
10:*100:247:F,
10:*100:344:F,
16:u:code-1LLLLL=67,
16:u:code-1RRRRR=44,
10:*100:389:T,
10:*100:294:F,
16:u:code-1RRRR =44,
10:*100:298:F,
10:*100:222:F,
10:*100:163:F,
16:u:code-1RRR  =44,
17:u:code-1RRRRR=122,
10:*100:230:F,
10:*100:245:F,
16:u:code-1RR   =44,
17:u:code-1RRRR =122,
10:*100:122:T,
10:*100:181:F,
16:u:code-1R    =44,
17:u:code-1RRR  =122,
10:*100:272:T,
10:*100:301:F,
10:*100:304:F,
16:u:code-1X    =44,
17:u:code-1RR   =122,
8:*100:4:F,
10:*100:167:F,
9:*100:56:F,
16:u:code-1L    =44,
17:u:code-1R    =122,
9:*100:79:T,
10:*100:361:F,
16:u:code-1LL   =44,
17:u:code-1X    =122,
16:u:code-1LLL  =44,
17:u:code-1L    =122,
10:*100:203:F,
16:u:code-1LLLL =44,
17:u:code-1LL   =122,
10:*100:145:T,
10:*100:370:F,
16:u:code-1LLLLL=44,
17:u:code-1LLL  =122,
10:*100:254:T,
10:*100:206:T,
17:u:code-1LLLL =122,
17:u:code-1LLLLL=122,
10:*100:335:T,
10:*100:395:T,
10:*100:258:F,
10:*100:100:F,
10:*100:343:F,
10:*100:287:T,
10:*100:388:T,
10:*100:333:F,
10:*100:259:F,
9:*100:19:F,
10:*100:332:F,
8:*100:0:F,
10:*100:387:F,
10:*100:151:F,
10:*100:360:T,
9:*100:51:F,
10:*100:111:T,
10:*100:144:T,
10:*100:313:T,
10:*100:373:T,
10:*100:198:T,
10:*100:218:T,
8:*100:5:F,
10:*100:286:F,
9:*100:74:F,
10:*100:236:F,
10:*100:202:F,
10:*100:252:T,
9:*100:47:F,
9:*100:56:T,
10:*100:166:T,
10:*100:140:T,
10:*100:167:T,
10:*100:155:T,
9:*100:29:T,
10:*100:384:T,
10:*100:296:T,
10:*100:255:T,
10:*100:156:F,
9:*100:75:T,
10:*100:345:T,
9:*100:73:F,
9:*100:88:T,
10:*100:355:F,
10:*100:118:F,
10:*100:264:F,
10:*100:157:F,
10:*100:364:T,
10:*100:228:T,
10:*100:335:F,
10:*100:282:T,
10:*100:157:T,
10:*100:124:F,
10:*100:262:F,
10:*100:311:F,
16:u:code-1RRRRR=45,
15:u:cat-1RRRRR=pd,
16:u:code-1RRRR =45,
15:u:cat-1RRRR =pd,
16:u:code-1RRR  =45,
15:u:cat-1RRR  =pd,
10:*100:120:T,
16:u:code-1RR   =45,
15:u:cat-1RR   =pd,
10:*100:227:F,
16:u:code-1R    =45,
15:u:cat-1R    =pd,
9:*100:87:T,
10:*100:114:F,
16:u:code-1X    =45,
15:u:cat-1X    =pd,
16:u:code-1L    =45,
15:u:cat-1L    =pd,
16:u:code-1LL   =45,
15:u:cat-1LL   =pd,
10:*100:292:F,
16:u:code-1LLL  =45,
15:u:cat-1LLL  =pd,
9:*100:62:F,
10:*100:166:F,
16:u:code-1LLLL =45,
15:u:cat-1LLLL =pd,
10:*100:103:T,
10:*100:383:T,
10:*100:205:F,
16:u:code-1LLLLL=45,
15:u:cat-1LLLLL=pd,
9:*100:45:T,
9:*100:28:F,
10:*100:124:T,
10:*100:297:F,
10:*100:111:F,
10:*100:283:T,
8:*100:7:F,
10:*100:122:F,
10:*100:138:F,
10:*100:192:T,
10:*100:275:F,
10:*100:306:T,
10:*100:200:F,
9:*100:21:F,
10:*100:383:F,
10:*100:219:F,
10:*100:115:F,
8:*100:9:F,
10:*100:362:F,
10:*100:340:F,
10:*100:353:F,
9:*100:97:F,
10:*100:295:T,
9:*100:98:F,
9:*100:42:F,
10:*100:371:T,
10:*100:176:F,
9:*100:65:F,
10:*100:302:F,
9:*100:50:T,
10:*100:104:F,
10:*100:374:F,
10:*100:389:F,
10:*100:153:T,
8:*100:2:F,
9:*100:48:F,
10:*100:391:T,
10:*100:314:F,
10:*100:307:F,
10:*100:250:F,
10:*100:109:T,
10:*100:263:T,
10:*100:307:T,
10:*100:129:F,
10:*100:215:F,
10:*100:298:T,
10:*100:275:T,
9:*100:45:F,
10:*100:194:F,
10:*100:160:F,
9:*100:90:F,
9:*100:91:T,
10:*100:392:T,
10:*100:148:F,
10:*100:276:T,
10:*100:249:T,
10:*100:256:T,
9:*100:86:T,
10:*100:325:T,
10:*100:226:F,
10:*100:195:F,
10:*100:264:T,
16:u:code-1RRRRR=68,
10:*100:147:T,
10:*100:326:T,
16:u:code-1RRRR =68,
16:u:code-1RRR  =68,
16:u:code-1RR   =68,
16:u:code-1RRRRR=80,
16:u:code-1R    =68,
16:u:code-1RRRR =80,
10:*100:175:T,
10:*100:376:T,
16:u:code-1X    =68,
16:u:code-1RRR  =80,
16:u:code-1L    =68,
16:u:code-1RR   =80,
16:u:code-1RRRRR=65,
16:u:code-1LL   =68,
16:u:code-1R    =80,
16:u:code-1RRRR =65,
16:u:code-1LLL  =68,
16:u:code-1X    =80,
16:u:code-1RRR  =65,
16:u:code-1LLLL =68,
16:u:code-1L    =80,
16:u:code-1RR   =65,
16:u:code-1LLLLL=68,
16:u:code-1LL   =80,
16:u:code-1R    =65,
10:*100:297:T,
16:u:code-1LLL  =80,
16:u:code-1X    =65,
17:u:code-1RRRRR=102,
16:u:code-1LLLL =80,
16:u:code-1L    =65,
17:u:code-1RRRR =102,
9:*100:82:F,
16:u:code-1LLLLL=80,
16:u:code-1LL   =65,
17:u:code-1RRR  =102,
16:u:code-1LLL  =65,
17:u:code-1RR   =102,
16:u:code-1LLLL =65,
17:u:code-1R    =102,
10:*100:310:F,
16:u:code-1LLLLL=65,
17:u:code-1X    =102,
10:*100:132:T,
10:*100:374:T,
17:u:code-1L    =102,
10:*100:309:T,
10:*100:205:T,
17:u:code-1LL   =102,
10:*100:362:T,
17:u:code-1LLL  =102,
17:u:code-1LLLL =102,
17:u:code-1LLLLL=102,
10:*100:154:T,
10:*100:291:T,
10:*100:191:F,
10:*100:171:T,
9:*100:52:F,
10:*100:101:T,
9:*100:11:F,
10:*100:336:T,
10:*100:358:F,
16:u:code-1RRRRR=99,
16:u:code-1RRRR =99,
16:u:code-1RRR  =99,
16:u:code-1RR   =99,
16:u:code-1R    =99,
10:*100:158:T,
16:u:code-1X    =99,
10:*100:258:T,
10:*100:100:T,
10:*100:118:T,
10:*100:212:T,
10:*100:267:T,
16:u:code-1L    =99,
8:*100:6:T,
10:*100:143:T,
16:u:code-1LL   =99,
9:*100:30:T,
10:*100:127:F,
16:u:code-1LLL  =99,
10:*100:314:T,
10:*100:250:T,
10:*100:136:T,
16:u:code-1LLLL =99,
9:*100:25:T,
16:u:code-1LLLLL=99,
8:*100:9:T,
10:*100:143:F,
10:*100:209:T,
10:*100:181:T,
10:*100:265:T,
10:*100:329:F,
10:*100:206:F,
10:*100:385:T,
10:*100:315:T,
10:*100:233:T,
9:*100:38:F,
10:*100:252:F,
10:*100:222:T,
16:u:code-1RRRRR=86,
10:*100:266:F,
16:u:code-1RRRR =86,
16:u:code-1RRR  =86,
16:u:code-1RR   =86,
16:u:code-1R    =86,
10:*100:270:F,
16:u:code-1X    =86,
16:u:code-1L    =86,
16:u:code-1LL   =86,
16:u:code-1LLL  =86,
16:u:code-1LLLL =86,
9:*100:41:T,
16:u:code-1LLLLL=86,
10:*100:138:T,
9:*100:34:T,
10:*100:234:T,
9:*100:58:F,
9:*100:39:F,
10:*100:175:F,
18:u:code-1RRRRR=_x+1,
17:u:cat-1RRRRR=_x+1,
18:u:code-1RRRR =_x+1,
18:u:code-1RRRRR=_x+2,
17:u:cat-1RRRR =_x+1,
17:u:cat-1RRRRR=_x+2,
9:*100:52:T,
18:u:code-1RRR  =_x+1,
18:u:code-1RRRR =_x+2,
18:u:code-1RRRRR=_x+3,
17:u:cat-1RRR  =_x+1,
17:u:cat-1RRRR =_x+2,
17:u:cat-1RRRRR=_x+3,
18:u:code-1RR   =_x+1,
18:u:code-1RRR  =_x+2,
18:u:code-1RRRR =_x+3,
18:u:code-1RRRRR=_x+4,
17:u:cat-1RR   =_x+1,
17:u:cat-1RRR  =_x+2,
17:u:cat-1RRRR =_x+3,
17:u:cat-1RRRRR=_x+4,
18:u:code-1R    =_x+1,
18:u:code-1RR   =_x+2,
18:u:code-1RRR  =_x+3,
18:u:code-1RRRR =_x+4,
18:u:code-1RRRRR=_x+#,
17:u:cat-1R    =_x+1,
17:u:cat-1RR   =_x+2,
17:u:cat-1RRR  =_x+3,
17:u:cat-1RRRR =_x+4,
17:u:cat-1RRRRR=_x+#,
10:*100:397:T,
9:*100:71:T,
10:*100:243:F,
10:*100:257:F,
8:*100:8:T,
10:*100:315:F,
10:*100:363:F,
10:*100:180:F,
10:*100:309:F,
10:*100:198:F,
10:*100:271:F,
10:*100:388:F,
10:*100:126:F,
10:*100:280:T,
10:*100:232:T,
9:*100:57:T,
10:*100:244:F,
9:*100:37:T,
10:*100:399:F,
10:*100:246:F,
10:*100:173:F,
9:*100:26:F,
16:u:code-1RRRRR=78,
16:u:code-1RRRR =78,
16:u:code-1RRR  =78,
16:u:code-1RR   =78,
16:u:code-1R    =78,
16:u:code-1X    =78,
16:u:code-1L    =78,
16:u:code-1LL   =78,
16:u:code-1LLL  =78,
16:u:code-1LLLL =78,
16:u:code-1LLLLL=78,
16:u:code-1RRRRR=40,
15:u:cat-1RRRRR=ps,
16:u:code-1RRRR =40,
15:u:cat-1RRRR =ps,
16:u:code-1RRR  =40,
15:u:cat-1RRR  =ps,
16:u:code-1RR   =40,
15:u:cat-1RR   =ps,
10:*100:370:T,
16:u:code-1R    =40,
15:u:cat-1R    =ps,
16:u:code-1X    =40,
15:u:cat-1X    =ps,
16:u:code-1L    =40,
15:u:cat-1L    =ps,
16:u:code-1LL   =40,
15:u:cat-1LL   =ps,
16:u:code-1LLL  =40,
15:u:cat-1LLL  =ps,
16:u:code-1LLLL =40,
15:u:cat-1LLLL =ps,
16:u:code-1LLLLL=40,
15:u:cat-1LLLLL=ps,
16:u:code-1RRRRR=87,
16:u:code-1RRRR =87,
16:u:code-1RRR  =87,
16:u:code-1RR   =87,
16:u:code-1R    =87,
16:u:code-1X    =87,
16:u:code-1L    =87,
16:u:code-1LL   =87,
10:*100:303:F,
16:u:code-1LLL  =87,
16:u:code-1LLLL =87,
16:u:code-1LLLLL=87,
16:u:code-1RRRRR=41,
15:u:cat-1RRRRR=pe,
16:u:code-1RRRR =41,
15:u:cat-1RRRR =pe,
16:u:code-1RRR  =41,
15:u:cat-1RRR  =pe,
16:u:code-1RR   =41,
15:u:cat-1RR   =pe,
16:u:code-1R    =41,
15:u:cat-1R    =pe,
16:u:code-1X    =41,
15:u:cat-1X    =pe,
16:u:code-1L    =41,
15:u:cat-1L    =pe,
16:u:code-1LL   =41,
15:u:cat-1LL   =pe,
16:u:code-1LLL  =41,
15:u:cat-1LLL  =pe,
16:u:code-1LLLL =41,
15:u:cat-1LLLL =pe,
16:u:code-1LLLLL=41,
15:u:cat-1LLLLL=pe,
10:*100:249:F,
10:*100:337:F,
10:*100:357:T,
10:*100:303:T,
10:*100:121:T,
10:*100:394:F,
10:*100:380:F,
10:*100:256:F,
10:*100:139:T,
10:*100:192:F,
9:*100:72:F,
10:*100:145:F,
16:u:code-1RRRRR=75,
16:u:code-1RRRR =75,
16:u:code-1RRR  =75,
16:u:code-1RR   =75,
10:*100:366:F,
16:u:code-1R    =75,
16:u:code-1X    =75,
16:u:code-1L    =75,
9:*100:66:T,
16:u:code-1LL   =75,
16:u:code-1RRRRR=71,
9:*100:70:F,
16:u:code-1LLL  =75,
16:u:code-1RRRR =71,
16:u:code-1LLLL =75,
16:u:code-1RRR  =71,
10:*100:354:F,
16:u:code-1LLLLL=75,
16:u:code-1RR   =71,
16:u:code-1R    =71,
16:u:code-1X    =71,
16:u:code-1RRRRR=76,
16:u:code-1L    =71,
16:u:code-1RRRR =76,
10:*100:188:T,
16:u:code-1LL   =71,
16:u:code-1RRR  =76,
16:u:code-1LLL  =71,
16:u:code-1RR   =76,
16:u:code-1LLLL =71,
16:u:code-1R    =76,
16:u:code-1LLLLL=71,
16:u:code-1X    =76,
16:u:code-1L    =76,
16:u:code-1LL   =76,
10:*100:168:F,
16:u:code-1LLL  =76,
16:u:code-1LLLL =76,
10:*100:146:T,
16:u:code-1LLLLL=76,
10:*100:316:F,
10:*100:155:F,
10:*100:324:T,
10:*100:273:T,
10:*100:137:F,
9:*100:33:F,
16:u:code-1RRRRR=82,
16:u:code-1RRRR =82,
16:u:code-1RRR  =82,
16:u:code-1RR   =82,
16:u:code-1R    =82,
16:u:code-1X    =82,
16:u:code-1L    =82,
16:u:code-1LL   =82,
16:u:code-1LLL  =82,
16:u:code-1LLLL =82,
16:u:code-1LLLLL=82,
16:u:code-1RRRRR=79,
16:u:code-1RRRR =79,
16:u:code-1RRR  =79,
10:*100:221:F,
16:u:code-1RR   =79,
16:u:code-1R    =79,
10:*100:282:F,
10:*100:136:F,
10:*100:130:F,
10:*100:268:F,
10:*100:199:F,
16:u:code-1RRRRR=90,
16:u:code-1RRRR =90,
16:u:code-1RRR  =90,
16:u:code-1RR   =90,
16:u:code-1R    =90,
16:u:code-1X    =90,
16:u:code-1L    =90,
10:*100:290:T,
16:u:code-1LL   =90,
16:u:code-1LLL  =90,
16:u:code-1LLLL =90,
16:u:code-1LLLLL=90,
10:*100:393:F,
9:*100:46:F,
9:*100:67:F,
10:*100:319:F,
16:u:code-1RRRRR=73,
16:u:code-1RRRR =73,
16:u:code-1RRR  =73,
16:u:code-1RR   =73,
16:u:code-1R    =73,
16:u:code-1X    =73,
16:u:code-1L    =73,
16:u:code-1LL   =73,
16:u:code-1LLL  =73,
16:u:code-1LLLL =73,
16:u:code-1LLLLL=73,
10:*100:330:F,
10:*100:392:F,
10:*100:170:F,
10:*100:243:T,
10:*100:316:T,
16:u:code-1RRR  =69,
16:u:code-1RR   =69,
16:u:code-1R    =69,
16:u:code-1X    =69,
16:u:code-1L    =69,
16:u:code-1LL   =69,
16:u:code-1LLL  =69,
16:u:code-1LLLL =69,
16:u:code-1LLLLL=69,
16:u:code-1RRRRR=69,
16:u:code-1RRRR =69,
16:u:code-1RRRRR=85,
16:u:code-1RRRR =85,
16:u:code-1RRR  =85,
16:u:code-1RR   =85,
16:u:code-1R    =85,
16:u:code-1X    =85,
16:u:code-1L    =85,
16:u:code-1LL   =85,
16:u:code-1LLL  =85,
16:u:code-1LLLL =85,
16:u:code-1LLLLL=85,
10:*100:102:F,
16:u:code-1RRRRR=70,
16:u:code-1RRRR =70,
16:u:code-1RRR  =70,
16:u:code-1RR   =70,
16:u:code-1R    =70,
16:u:code-1X    =70,
16:u:code-1L    =70,
16:u:code-1LL   =70,
16:u:code-1LLL  =70,
10:*100:209:F,
16:u:code-1LLLL =70,
16:u:code-1LLLLL=70,
16:u:code-1RRRRR=66,
16:u:code-1RRRR =66,
16:u:code-1RRRRR=83,
16:u:code-1RRR  =66,
16:u:code-1RRRR =83,
9:*100:83:F,
16:u:code-1RR   =66,
16:u:code-1RRR  =83,
16:u:code-1R    =66,
16:u:code-1RR   =83,
16:u:code-1X    =66,
16:u:code-1R    =83,
16:u:code-1L    =66,
16:u:code-1X    =83,
16:u:code-1LL   =66,
16:u:code-1L    =83,
16:u:code-1LLL  =66,
16:u:code-1LL   =83,
16:u:code-1LLLL =66,
16:u:code-1LLL  =83,
16:u:code-1LLLLL=66,
16:u:code-1LLLL =83,
16:u:code-1LLLLL=83,
17:u:code-1RRRRR=235,
17:u:code-1RRRR =235,
17:u:code-1RRR  =235,
17:u:code-1RR   =235,
17:u:code-1R    =235,
17:u:code-1X    =235,
17:u:code-1L    =235,
17:u:code-1LL   =235,
17:u:code-1LLL  =235,
17:u:code-1LLLL =235,
17:u:code-1LLLLL=235,
17:u:code-1RRRRR=120,
17:u:code-1RRRR =120,
17:u:code-1RRR  =120,
17:u:code-1RR   =120,
17:u:code-1R    =120,
17:u:code-1X    =120,
17:u:code-1L    =120,
17:u:code-1LL   =120,
17:u:code-1LLL  =120,
17:u:code-1LLLL =120,
17:u:code-1LLLLL=120,
10:*100:224:F,
16:u:code-1RRRRR=50,
15:u:cat-1RRRRR=nd,
16:u:code-1RRRR =50,
16:u:code-1RRRRR=48,
15:u:cat-1RRRR =nd,
16:u:code-1RRR  =50,
16:u:code-1RRRR =48,
15:u:cat-1RRR  =nd,
16:u:code-1RR   =50,
16:u:code-1RRR  =48,
15:u:cat-1RR   =nd,
16:u:code-1R    =50,
16:u:code-1RR   =48,
15:u:cat-1R    =nd,
16:u:code-1X    =50,
16:u:code-1R    =48,
15:u:cat-1X    =nd,
16:u:code-1L    =50,
16:u:code-1X    =48,
15:u:cat-1L    =nd,
16:u:code-1LL   =50,
16:u:code-1L    =48,
15:u:cat-1LL   =nd,
16:u:code-1LLL  =50,
16:u:code-1LL   =48,
15:u:cat-1LLL  =nd,
16:u:code-1LLLL =50,
16:u:code-1LLL  =48,
15:u:cat-1LLLL =nd,
16:u:code-1LLLLL=50,
16:u:code-1LLLL =48,
15:u:cat-1LLLLL=nd,
16:u:code-1LLLLL=48,
10:*100:287:F,
17:u:code-1RRRRR=239,
17:u:code-1RRRR =239,
17:u:code-1RRR  =239,
17:u:code-1RR   =239,
17:u:code-1R    =239,
17:u:code-1X    =239,
17:u:code-1L    =239,
17:u:code-1LL   =239,
17:u:code-1LLL  =239,
17:u:code-1LLLL =239,
17:u:code-1LLLLL=239,
16:u:code-1RRRRR=74,
16:u:code-1RRRR =74,
16:u:code-1RRR  =74,
16:u:code-1RR   =74,
16:u:code-1R    =74,
16:u:code-1X    =74,
16:u:code-1L    =74,
16:u:code-1LL   =74,
16:u:code-1LLL  =74,
16:u:code-1LLLL =74,
16:u:code-1LLLLL=74,
16:u:code-1RRRRR=49,
16:u:code-1RRRR =49,
16:u:code-1RRRRR=57,
16:u:code-1RRR  =49,
16:u:code-1RRRR =57,
16:u:code-1RR   =49,
16:u:code-1RRR  =57,
16:u:code-1RRRRR=55,
16:u:code-1R    =49,
16:u:code-1RR   =57,
16:u:code-1RRRR =55,
16:u:code-1X    =49,
16:u:code-1R    =57,
16:u:code-1RRR  =55,
16:u:code-1L    =49,
16:u:code-1X    =57,
16:u:code-1RR   =55,
16:u:code-1LL   =49,
16:u:code-1L    =57,
16:u:code-1R    =55,
16:u:code-1LLL  =49,
16:u:code-1LL   =57,
16:u:code-1X    =55,
16:u:code-1LLLL =49,
16:u:code-1LLL  =57,
16:u:code-1L    =55,
16:u:code-1LLLLL=49,
16:u:code-1LLLL =57,
16:u:code-1LL   =55,
16:u:code-1LLLLL=57,
16:u:code-1LLL  =55,
16:u:code-1LLLL =55,
16:u:code-1LLLLL=55,
16:u:code-1RRRRR=51,
16:u:code-1RRRR =51,
16:u:code-1RRRRR=54,
16:u:code-1RRR  =51,
16:u:code-1RRRR =54,
16:u:code-1RR   =51,
16:u:code-1RRR  =54,
16:u:code-1R    =51,
16:u:code-1RR   =54,
16:u:code-1X    =51,
16:u:code-1R    =54,
16:u:code-1L    =51,
16:u:code-1X    =54,
16:u:code-1LL   =51,
16:u:code-1L    =54,
16:u:code-1LLL  =51,
16:u:code-1LL   =54,
16:u:code-1LLLL =51,
16:u:code-1LLL  =54,
16:u:code-1LLLLL=51,
16:u:code-1LLLL =54,
16:u:code-1LLLLL=54,
16:u:code-1RRRRR=52,
16:u:code-1RRRR =52,
16:u:code-1RRR  =52,
16:u:code-1RR   =52,
16:u:code-1R    =52,
16:u:code-1X    =52,
16:u:code-1L    =52,
16:u:code-1LL   =52,
16:u:code-1LLL  =52,
16:u:code-1LLLL =52,
16:u:code-1LLLLL=52,
16:u:code-1RRRRR=56,
16:u:code-1RRRR =56,
16:u:code-1RRR  =56,
16:u:code-1RR   =56,
16:u:code-1R    =56,
16:u:code-1X    =56,
16:u:code-1L    =56,
16:u:code-1LL   =56,
16:u:code-1LLL  =56,
16:u:code-1LLLL =56,
16:u:code-1LLLLL=56,
16:u:code-1RRRRR=53,
16:u:code-1RRRR =53,
16:u:code-1RRR  =53,
16:u:code-1RR   =53,
16:u:code-1R    =53,
16:u:code-1X    =53,
16:u:code-1L    =53,
16:u:code-1LL   =53,
16:u:code-1LLL  =53,
16:u:code-1LLLL =53,
16:u:code-1LLLLL=53,
16:u:code-1RRRRR=84,
16:u:code-1RRRR =84,
16:u:code-1RRR  =84,
16:u:code-1RR   =84,
16:u:code-1R    =84,
16:u:code-1X    =84,
16:u:code-1L    =84,
16:u:code-1LL   =84,
16:u:code-1LLL  =84,
16:u:code-1LLLL =84,
16:u:code-1LLLLL=84,
17:u:code-1RRRRR=113,
17:u:code-1RRRR =113,
17:u:code-1RRR  =113,
17:u:code-1RR   =113,
17:u:code-1R    =113,
17:u:code-1X    =113,
17:u:code-1L    =113,
17:u:code-1LL   =113,
17:u:code-1LLL  =113,
17:u:code-1LLLL =113,
17:u:code-1LLLLL=113,
16:u:code-1RRRRR=58,
17:u:code-1RRRRR=121,
17:u:code-1RRRR =121,
17:u:code-1RRR  =121,
17:u:code-1RR   =121,
17:u:code-1R    =121,
17:u:code-1X    =121,
17:u:code-1L    =121,
17:u:code-1LL   =121,
17:u:code-1LLL  =121,
17:u:code-1LLLL =121,
17:u:code-1LLLLL=121,
16:u:code-1RRRRR=47,
16:u:code-1RRRR =47,
16:u:code-1RRR  =47,
16:u:code-1RR   =47,
16:u:code-1R    =47,
16:u:code-1X    =47,
16:u:code-1L    =47,
16:u:code-1LL   =47,
16:u:code-1LLL  =47,
16:u:code-1LLLL =47,
17:u:code-1RRRRR=232,
17:u:code-1RRRR =232,
17:u:code-1RRR  =232,
17:u:code-1RR   =232,
17:u:code-1R    =232,
17:u:code-1X    =232,
17:u:code-1L    =232,
17:u:code-1LL   =232,
17:u:code-1LLL  =232,
17:u:code-1LLLL =232,
17:u:code-1LLLLL=232,
16:u:code-1LLLLL=47,
17:u:code-1RRRRR=252,
17:u:code-1RRRR =252,
17:u:code-1RRR  =252,
17:u:code-1RR   =252,
17:u:code-1R    =252,
17:u:code-1X    =252,
17:u:code-1L    =252,
17:u:code-1LL   =252,
17:u:code-1LLL  =252,
17:u:code-1LLLL =252,
17:u:code-1LLLLL=252,
17:u:code-1RRRRR=246,
17:u:code-1RRRR =246,
17:u:code-1RRR  =246,
17:u:code-1RR   =246,
17:u:code-1R    =246,
17:u:code-1X    =246,
17:u:code-1L    =246,
17:u:code-1LL   =246,
17:u:code-1LLL  =246,
17:u:code-1LLLL =246,
17:u:code-1LLLLL=246,
16:u:code-1RRRRR=59,
16:u:code-1RRRR =59,
16:u:code-1RRR  =59,
16:u:code-1RR   =59,
16:u:code-1R    =59,
16:u:code-1X    =59,
16:u:code-1L    =59,
16:u:code-1LL   =59,
16:u:code-1LLL  =59,
16:u:code-1LLLL =59,
16:u:code-1LLLLL=59,
17:u:code-1RRRRR=233,
17:u:code-1RRRR =233,
17:u:code-1RRR  =233,
17:u:code-1RR   =233,
17:u:code-1R    =233,
17:u:code-1X    =233,
17:u:code-1L    =233,
17:u:code-1LL   =233,
17:u:code-1LLL  =233,
17:u:code-1LLLL =233,
17:u:code-1LLLLL=233,
16:u:code-1RRRRR=63,
16:u:code-1RRRR =63,
16:u:code-1RRR  =63,
16:u:code-1RR   =63,
16:u:code-1R    =63,
16:u:code-1X    =63,
16:u:code-1L    =63,
16:u:code-1LL   =63,
16:u:code-1LLL  =63,
16:u:code-1LLLL =63,
16:u:code-1LLLLL=63,
17:u:code-1RRRRR=225,
17:u:code-1RRRR =225,
17:u:code-1RRR  =225,
17:u:code-1RR   =225,
17:u:code-1R    =225,
17:u:code-1X    =225,
17:u:code-1L    =225,
17:u:code-1LL   =225,
17:u:code-1LLL  =225,
17:u:code-1LLLL =225,
17:u:code-1LLLLL=225,
16:u:code-1RRRRR=38,
16:u:code-1RRRR =38,
16:u:code-1RRR  =38,
16:u:code-1RR   =38,
16:u:code-1R    =38,
16:u:code-1X    =38,
16:u:code-1L    =38,
16:u:code-1LL   =38,
16:u:code-1LLL  =38,
16:u:code-1LLLL =38,
16:u:code-1LLLLL=38,
16:u:code-1RRRRR=33,
16:u:code-1RRRR =33,
16:u:code-1RRR  =33,
16:u:code-1RR   =33,
16:u:code-1R    =33,
16:u:code-1X    =33,
16:u:code-1L    =33,
16:u:code-1LL   =33,
16:u:code-1LLL  =33,
16:u:code-1LLLL =33,
16:u:code-1LLLLL=33,
17:u:code-1RRRRR=243,
17:u:code-1RRRR =243,
17:u:code-1RRR  =243,
17:u:code-1RR   =243,
17:u:code-1R    =243,
17:u:code-1X    =243,
17:u:code-1L    =243,
17:u:code-1LL   =243,
17:u:code-1LLL  =243,
17:u:code-1LLLL =243,
17:u:code-1LLLLL=243,
16:u:code-1RRRRR=89,
16:u:code-1RRRR =89,
16:u:code-1RRR  =89,
16:u:code-1RR   =89,
16:u:code-1R    =89,
16:u:code-1X    =89,
16:u:code-1L    =89,
16:u:code-1LL   =89,
16:u:code-1LLL  =89,
16:u:code-1LLLL =89,
16:u:code-1LLLLL=89,
17:u:code-1RRRRR=161,
17:u:code-1RRRR =161,
17:u:code-1RRR  =161,
17:u:code-1RR   =161,
17:u:code-1R    =161,
17:u:code-1X    =161,
17:u:code-1L    =161,
17:u:code-1LL   =161,
17:u:code-1LLL  =161,
17:u:code-1LLLL =161,
17:u:code-1LLLLL=161,
16:u:code-1RRRRR=34,
16:u:code-1RRRR =34,
16:u:code-1RRR  =34,
16:u:code-1RR   =34,
16:u:code-1R    =34,
16:u:code-1X    =34,
16:u:code-1L    =34,
16:u:code-1LL   =34,
16:u:code-1LLL  =34,
16:u:code-1LLLL =34,
16:u:code-1LLLLL=34,
17:u:code-1RRRRR=234,
17:u:code-1RRRR =234,
17:u:code-1RRR  =234,
17:u:code-1RR   =234,
17:u:code-1R    =234,
17:u:code-1X    =234,
17:u:code-1L    =234,
17:u:code-1LL   =234,
17:u:code-1LLL  =234,
17:u:code-1LLLL =234,
17:u:code-1LLLLL=234,
17:u:code-1RRRRR=160,
17:u:code-1RRRR =160,
17:u:code-1RRR  =160,
17:u:code-1RR   =160,
17:u:code-1R    =160,
17:u:code-1X    =160,
17:u:code-1L    =160,
17:u:code-1LL   =160,
17:u:code-1LLL  =160,
17:u:code-1LLLL =160,
17:u:code-1LLLLL=160,
16:u:code-1RRRRR=88,
16:u:code-1RRRR =88,
16:u:code-1RRR  =88,
16:u:code-1RR   =88,
16:u:code-1R    =88,
16:u:code-1X    =88,
16:u:code-1L    =88,
16:u:code-1LL   =88,
16:u:code-1LLL  =88,
16:u:code-1LLLL =88,
16:u:code-1LLLLL=88,
16:u:code-1RRRRR=37,
16:u:code-1RRRR =37,
16:u:code-1RRR  =37,
16:u:code-1RR   =37,
16:u:code-1R    =37,
16:u:code-1X    =37,
16:u:code-1L    =37,
17:u:code-1RRRRR=176,
15:u:cat-1RRRRR=so,
17:u:code-1RRRR =176,
15:u:cat-1RRRR =so,
17:u:code-1RRR  =176,
15:u:cat-1RRR  =so,
17:u:code-1RR   =176,
15:u:cat-1RR   =so,
17:u:code-1R    =176,
15:u:cat-1R    =so,
17:u:code-1X    =176,
15:u:cat-1X    =so,
17:u:code-1L    =176,
15:u:cat-1L    =so,
17:u:code-1LL   =176,
15:u:cat-1LL   =so,
17:u:code-1LLL  =176,
15:u:cat-1LLL  =so,
17:u:code-1LLLL =176,
15:u:cat-1LLLL =so,
17:u:code-1LLLLL=176,
15:u:cat-1LLLLL=so,
17:u:code-1RRRRR=251,
17:u:code-1RRRR =251,
17:u:code-1RRR  =251,
17:u:code-1RR   =251,
17:u:code-1R    =251,
17:u:code-1X    =251,
17:u:code-1L    =251,
17:u:code-1LL   =251,
17:u:code-1LLL  =251,
17:u:code-1LLLL =251,
17:u:code-1LLLLL=251,
17:u:code-1RRRRR=224,
17:u:code-1RRRR =224,
17:u:code-1RRR  =224,
17:u:code-1RR   =224,
17:u:code-1R    =224,
17:u:code-1X    =224,
17:u:code-1L    =224,
17:u:code-1LL   =224,
17:u:code-1LLL  =224,
17:u:code-1LLLL =224,
17:u:code-1LLLLL=224,
17:u:code-1RRRRR=199,
17:u:code-1RRRR =199,
17:u:code-1RRR  =199,
17:u:code-1RR   =199,
17:u:code-1R    =199,
17:u:code-1X    =199,
17:u:code-1L    =199,
17:u:code-1LL   =199,
17:u:code-1LLL  =199,
17:u:code-1LLLL =199,
17:u:code-1LLLLL=199,
17:u:code-1RRRRR=228,
17:u:code-1RRRR =228,
17:u:code-1RRR  =228,
17:u:code-1RR   =228,
17:u:code-1R    =228,
17:u:code-1X    =228,
17:u:code-1L    =228,
17:u:code-1LL   =228,
17:u:code-1LLL  =228,
17:u:code-1LLLL =228,
17:u:code-1LLLLL=228,
17:u:code-1RRRRR=250,
17:u:code-1RRRR =250,
17:u:code-1RRR  =250,
17:u:code-1RR   =250,
17:u:code-1R    =250,
17:u:code-1X    =250,
17:u:code-1L    =250,
17:u:code-1LL   =250,
17:u:code-1LLL  =250,
17:u:code-1LLLL =250,
17:u:code-1LLLLL=250,
16:u:code-1RRRRR=81,
16:u:code-1RRRR =81,
16:u:code-1RRR  =81,
16:u:code-1RR   =81,
16:u:code-1R    =81,
16:u:code-1X    =81,
16:u:code-1L    =81,
16:u:code-1LL   =81,
16:u:code-1LLL  =81,
16:u:code-1LLLL =81,
16:u:code-1LLLLL=81,
17:u:code-1RRRRR=211,
17:u:code-1RRRR =211,
17:u:code-1RRR  =211,
17:u:code-1RR   =211,
17:u:code-1R    =211,
17:u:code-1X    =211,
17:u:code-1L    =211,
17:u:code-1LL   =211,
17:u:code-1LLL  =211,
17:u:code-1LLLL =211,
17:u:code-1LLLLL=211,
16:u:code-1RRRRR=61,
15:u:cat-1RRRRR=sm,
16:u:code-1RRRR =61,
15:u:cat-1RRRR =sm,
16:u:code-1RRR  =61,
15:u:cat-1RRR  =sm,
16:u:code-1RR   =61,
15:u:cat-1RR   =sm,
16:u:code-1R    =61,
15:u:cat-1R    =sm,
16:u:code-1X    =61,
15:u:cat-1X    =sm,
16:u:code-1L    =61,
15:u:cat-1L    =sm,
16:u:code-1LL   =61,
15:u:cat-1LL   =sm,
16:u:code-1LLL  =61,
15:u:cat-1LLL  =sm,
16:u:code-1LLLL =61,
15:u:cat-1LLLL =sm,
16:u:code-1LLLLL=61,
15:u:cat-1LLLLL=sm,
17:u:code-1RRRRR=237,
17:u:code-1RRRR =237,
17:u:code-1RRR  =237,
17:u:code-1RR   =237,
17:u:code-1R    =237,
17:u:code-1X    =237,
17:u:code-1L    =237,
17:u:code-1LL   =237,
17:u:code-1LLL  =237,
17:u:code-1LLLL =237,
17:u:code-1LLLLL=237,
17:u:code-1RRRRR=214,
17:u:code-1RRRR =214,
17:u:code-1RRR  =214,
17:u:code-1RR   =214,
17:u:code-1R    =214,
17:u:code-1X    =214,
17:u:code-1L    =214,
17:u:code-1LL   =214,
17:u:code-1LLL  =214,
17:u:code-1LLLL =214,
17:u:code-1LLLLL=214,
17:u:code-1RRRRR=231,
17:u:code-1RRRR =231,
17:u:code-1RRR  =231,
17:u:code-1RR   =231,
17:u:code-1R    =231,
17:u:code-1X    =231,
17:u:code-1L    =231,
17:u:code-1LL   =231,
17:u:code-1LLL  =231,
17:u:code-1LLLL =231,
17:u:code-1LLLLL=231,
16:u:code-1RRRRR=42,
16:u:code-1RRRR =42,
16:u:code-1RRR  =42,
16:u:code-1RR   =42,
16:u:code-1R    =42,
16:u:code-1X    =42,
16:u:code-1RRRRR=96,
15:u:cat-1RRRRR=sk,
16:u:code-1RRRR =96,
15:u:cat-1RRRR =sk,
16:u:code-1RRR  =96,
15:u:cat-1RRR  =sk,
16:u:code-1RR   =96,
15:u:cat-1RR   =sk,
16:u:code-1R    =96,
15:u:cat-1R    =sk,
16:u:code-1X    =96,
15:u:cat-1X    =sk,
16:u:code-1L    =96,
15:u:cat-1L    =sk,
16:u:code-1LL   =96,
15:u:cat-1LL   =sk,
16:u:code-1LLL  =96,
15:u:cat-1LLL  =sk,
16:u:code-1LLLL =96,
15:u:cat-1LLLL =sk,
16:u:code-1LLLLL=96,
15:u:cat-1LLLLL=sk,
16:u:code-1RRRRR=43,
16:u:code-1RRRR =43,
16:u:code-1RRR  =43,
16:u:code-1RR   =43,
16:u:code-1R    =43,
16:u:code-1X    =43,
16:u:code-1L    =43,
16:u:code-1LL   =43,
16:u:code-1LLL  =43,
16:u:code-1LLLL =43,
16:u:code-1LLLLL=43,
16:u:code-1RRRRR=64,
16:u:code-1RRRR =64,
16:u:code-1RRR  =64,
16:u:code-1RR   =64,
16:u:code-1R    =64,
16:u:code-1X    =64,
16:u:code-1L    =64,
16:u:code-1LL   =64,
16:u:code-1LLL  =64,
16:u:code-1LLLL =64,
16:u:code-1LLLLL=64,
17:u:code-1RRRRR=242,
17:u:code-1RRRR =242,
17:u:code-1RRR  =242,
17:u:code-1RR   =242,
17:u:code-1R    =242,
17:u:code-1X    =242,
17:u:code-1L    =242,
17:u:code-1LL   =242,
17:u:code-1LLL  =242,
17:u:code-1LLLL =242,
17:u:code-1LLLLL=242,
17:u:code-1RRRRR=402,
17:u:code-1RRRR =402,
17:u:code-1RRR  =402,
17:u:code-1RR   =402,
17:u:code-1R    =402,
17:u:code-1X    =402,
17:u:code-1L    =402,
17:u:code-1LL   =402,
17:u:code-1LLL  =402,
17:u:code-1LLLL =402,
17:u:code-1LLLLL=402,
17:u:code-1RRRRR=163,
15:u:cat-1RRRRR=sc,
17:u:code-1RRRR =163,
15:u:cat-1RRRR =sc,
17:u:code-1RRR  =163,
15:u:cat-1RRR  =sc,
17:u:code-1RR   =163,
15:u:cat-1RR   =sc,
17:u:code-1R    =163,
15:u:cat-1R    =sc,
17:u:code-1X    =163,
15:u:cat-1X    =sc,
17:u:code-1L    =163,
15:u:cat-1L    =sc,
17:u:code-1LL   =163,
15:u:cat-1LL   =sc,
17:u:code-1LLL  =163,
15:u:cat-1LLL  =sc,
17:u:code-1LLLL =163,
15:u:cat-1LLLL =sc,
17:u:code-1LLLLL=163,
15:u:cat-1LLLLL=sc,
16:u:code-1RRRRR=36,
16:u:code-1RRRR =36,
16:u:code-1RRR  =36,
16:u:code-1RR   =36,
16:u:code-1R    =36,
16:u:code-1X    =36,
16:u:code-1L    =36,
16:u:code-1LL   =36,
16:u:code-1LLL  =36,
16:u:code-1LLLL =36,
16:u:code-1LLLLL=36,
17:u:code-1RRRRR=248,
17:u:code-1RRRR =248,
17:u:code-1RRR  =248,
17:u:code-1RR   =248,
17:u:code-1R    =248,
17:u:code-1X    =248,
17:u:code-1L    =248,
17:u:code-1LL   =248,
17:u:code-1LLL  =248,
17:u:code-1LLLL =248,
17:u:code-1LLLLL=248,
17:u:code-1RRRRR=241,
17:u:code-1RRRR =241,
17:u:code-1RRR  =241,
17:u:code-1RR   =241,
17:u:code-1R    =241,
17:u:code-1X    =241,
17:u:code-1L    =241,
17:u:code-1LL   =241,
17:u:code-1LLL  =241,
17:u:code-1LLLL =241,
16:u:code-1RRRRR=92,
16:u:code-1RRRR =92,
16:u:code-1RRR  =92,
16:u:code-1RR   =92,
16:u:code-1R    =92,
16:u:code-1X    =92,
16:u:code-1L    =92,
16:u:code-1LL   =92,
16:u:code-1LLL  =92,
16:u:code-1LLLL =92,
16:u:code-1LLLLL=92,
16:u:code-1RRRRR=35,
16:u:code-1RRRR =35,
16:u:code-1RRR  =35,
16:u:code-1RR   =35,
16:u:code-1R    =35,
16:u:code-1X    =35,
16:u:code-1L    =35,
16:u:code-1LL   =35,
16:u:code-1LLL  =35,
16:u:code-1LLLL =35,
16:u:code-1LLLLL=35,
16:u:code-1RRRRR=91,
16:u:code-1RRRR =91,
16:u:code-1RRR  =91,
16:u:code-1RR   =91,
16:u:code-1R    =91,
16:u:code-1X    =91,
16:u:code-1L    =91,
16:u:code-1LL   =91,
16:u:code-1LLL  =91,
16:u:code-1LLLL =91,
16:u:code-1LLLLL=91,
16:u:code-1RRRRR=93,
16:u:code-1RRRR =93,
16:u:code-1RRR  =93,
16:u:code-1RR   =93,
16:u:code-1R    =93,
16:u:code-1X    =93,
16:u:code-1L    =93,
16:u:code-1LL   =93,
16:u:code-1LLL  =93,
16:u:code-1LLLL =93,
16:u:code-1LLLLL=93,
17:u:code-1RRRRR=229,
17:u:code-1RRRR =229,
17:u:code-1RRR  =229,
17:u:code-1RR   =229,
17:u:code-1R    =229,
17:u:code-1X    =229,
17:u:code-1L    =229,
17:u:code-1LL   =229,
17:u:code-1LLL  =229,
17:u:code-1LLLL =229,
17:u:code-1LLLLL=229,
17:u:code-1RRRRR=227,
17:u:code-1RRRR =227,
17:u:code-1RRR  =227,
17:u:code-1RR   =227,
17:u:code-1R    =227,
17:u:code-1X    =227,
17:u:code-1L    =227,
17:u:code-1LL   =227,
17:u:code-1LLL  =227,
17:u:code-1LLLL =227,
17:u:code-1LLLLL=227,
17:u:code-1RRRRR=353,
17:u:code-1RRRR =353,
17:u:code-1RRR  =353,
17:u:code-1RR   =353,
17:u:code-1R    =353,
17:u:code-1X    =353,
17:u:code-1L    =353,
17:u:code-1LL   =353,
17:u:code-1LLL  =353,
17:u:code-1LLLL =353,
17:u:code-1LLLLL=353,
17:u:code-1RRRRR=178,
15:u:cat-1RRRRR=no,
17:u:code-1RRRR =178,
15:u:cat-1RRRR =no,
17:u:code-1RRR  =178,
15:u:cat-1RRR  =no,
17:u:code-1RR   =178,
15:u:cat-1RR   =no,
17:u:code-1R    =178,
15:u:cat-1R    =no,
17:u:code-1X    =178,
15:u:cat-1X    =no,
17:u:code-1L    =178,
15:u:cat-1L    =no,
17:u:code-1LL   =178,
15:u:cat-1LL   =no,
17:u:code-1LLL  =178,
15:u:cat-1LLL  =no,
17:u:code-1LLLL =178,
15:u:cat-1LLLL =no,
17:u:code-1LLLLL=178,
15:u:cat-1LLLLL=no,
16:u:code-1LL   =37,
16:u:code-1LLL  =37,
16:u:code-1LLLL =37,
16:u:code-1LLLLL=37,
17:u:code-1RRRRR=179,
17:u:code-1RRRR =179,
17:u:code-1RRR  =179,
17:u:code-1RR   =179,
17:u:code-1R    =179,
17:u:code-1X    =179,
17:u:code-1L    =179,
17:u:code-1LL   =179,
17:u:code-1LLL  =179,
17:u:code-1LLLL =179,
17:u:code-1LLLLL=179,
17:u:code-1RRRRR=244,
17:u:code-1RRRR =244,
17:u:code-1RRR  =244,
17:u:code-1RR   =244,
17:u:code-1R    =244,
17:u:code-1X    =244,
17:u:code-1L    =244,
17:u:code-1LL   =244,
17:u:code-1LLL  =244,
17:u:code-1LLLL =244,
17:u:code-1LLLLL=244,
17:u:code-1RRRRR=189,
17:u:code-1RRRR =189,
17:u:code-1RRR  =189,
17:u:code-1RR   =189,
17:u:code-1R    =189,
17:u:code-1X    =189,
17:u:code-1L    =189,
17:u:code-1LL   =189,
17:u:code-1LLL  =189,
17:u:code-1LLLL =189,
17:u:code-1LLLLL=189,
17:u:code-1RRRRR=226,
17:u:code-1RRRR =226,
17:u:code-1RRR  =226,
17:u:code-1RR   =226,
17:u:code-1R    =226,
17:u:code-1X    =226,
17:u:code-1L    =226,
17:u:code-1LL   =226,
17:u:code-1LLL  =226,
17:u:code-1LLLL =226,
17:u:code-1LLLLL=226,
16:u:code-1L    =42,
16:u:code-1LL   =42,
16:u:code-1LLL  =42,
16:u:code-1LLLL =42,
16:u:code-1LLLLL=42,
17:u:code-1RRRRR=710,
15:u:cat-1RRRRR=lm,
17:u:code-1RRRR =710,
15:u:cat-1RRRR =lm,
17:u:code-1RRR  =710,
15:u:cat-1RRR  =lm,
17:u:code-1RR   =710,
15:u:cat-1RR   =lm,
17:u:code-1R    =710,
15:u:cat-1R    =lm,
17:u:code-1X    =710,
15:u:cat-1X    =lm,
17:u:code-1L    =710,
15:u:cat-1L    =lm,
17:u:code-1LL   =710,
15:u:cat-1LL   =lm,
17:u:code-1LLL  =710,
15:u:cat-1LLL  =lm,
17:u:code-1LLLL =710,
15:u:cat-1LLLL =lm,
17:u:code-1LLLLL=710,
15:u:cat-1LLLLL=lm,
17:u:code-1LLLLL=241,
17:u:code-1R    =220,
17:u:code-1X    =220,
17:u:code-1L    =220,
17:u:code-1LL   =220,
17:u:code-1LLL  =220,
17:u:code-1LLLL =220,
17:u:code-1LLLLL=220,
17:u:code-1RRRRR=164,
17:u:code-1RRRR =164,
17:u:code-1RRR  =164,
17:u:code-1RR   =164,
17:u:code-1R    =164,
17:u:code-1X    =164,
17:u:code-1L    =164,
9:*100:89:F,
17:u:code-1LL   =164,
17:u:code-1LLL  =164,
17:u:code-1LLLL =164,
17:u:code-1LLLLL=164,
17:u:code-1RRRRR=338,
17:u:code-1RRRR =338,
17:u:code-1RRR  =338,
17:u:code-1RR   =338,
17:u:code-1R    =338,
17:u:code-1X    =338,
17:u:code-1L    =338,
17:u:code-1LL   =338,
17:u:code-1LLL  =338,
17:u:code-1LLLL =338,
17:u:code-1LLLLL=338,
17:u:code-1RRRRR=126,
17:u:code-1RRRR =126,
17:u:code-1RRR  =126,
17:u:code-1RR   =126,
17:u:code-1R    =126,
17:u:code-1X    =126,
17:u:code-1L    =126,
17:u:code-1LL   =126,
17:u:code-1LLL  =126,
17:u:code-1LLLL =126,
17:u:code-1LLLLL=126,
18:u:code-1RRRRR=8225,
18:u:code-1RRRR =8225,
18:u:code-1RRR  =8225,
18:u:code-1RR   =8225,
18:u:code-1R    =8225,
18:u:code-1X    =8225,
18:u:code-1L    =8225,
18:u:code-1LL   =8225,
18:u:code-1LLL  =8225,
18:u:code-1LLLL =8225,
18:u:code-1LLLLL=8225,
17:u:code-1RRRRR=249,
17:u:code-1RRRR =249,
17:u:code-1RRR  =249,
17:u:code-1RR   =249,
17:u:code-1R    =249,
17:u:code-1X    =249,
17:u:code-1L    =249,
17:u:code-1LL   =249,
17:u:code-1LLL  =249,
17:u:code-1LLLL =249,
17:u:code-1LLLLL=249,
17:u:code-1RRRRR=238,
17:u:code-1RRRR =238,
17:u:code-1RRR  =238,
17:u:code-1RR   =238,
17:u:code-1R    =238,
17:u:code-1X    =238,
17:u:code-1L    =238,
17:u:code-1LL   =238,
17:u:code-1LLL  =238,
17:u:code-1LLLL =238,
17:u:code-1LLLLL=238,
17:u:code-1RRRRR=236,
17:u:code-1RRRR =236,
17:u:code-1RRR  =236,
17:u:code-1RR   =236,
17:u:code-1R    =236,
17:u:code-1X    =236,
17:u:code-1L    =236,
17:u:code-1LL   =236,
17:u:code-1LLL  =236,
17:u:code-1LLLL =236,
17:u:code-1LLLLL=236,
17:u:code-1RRR  =201,
17:u:code-1RR   =201,
17:u:code-1R    =201,
17:u:code-1X    =201,
17:u:code-1L    =201,
17:u:code-1LL   =201,
17:u:code-1LLL  =201,
17:u:code-1LLLL =201,
17:u:code-1LLLLL=201,
17:u:code-1RRRRR=198,
17:u:code-1RRRR =198,
17:u:code-1RRR  =198,
17:u:code-1RR   =198,
17:u:code-1R    =198,
17:u:code-1X    =198,
17:u:code-1L    =198,
17:u:code-1LL   =198,
17:u:code-1LLL  =198,
17:u:code-1RRRRR=377,
17:u:code-1RRRR =377,
17:u:code-1RRR  =377,
17:u:code-1RR   =377,
17:u:code-1R    =377,
17:u:code-1X    =377,
17:u:code-1L    =377,
17:u:code-1LL   =377,
17:u:code-1LLL  =377,
17:u:code-1LLLL =377,
17:u:code-1LLLLL=377,
0=-0x1.47ecc023880b4p+0
1=-0x1.1fa84c58053b8p-2
2=0x1.f64cbfb4aecb7p-3
3=-0x1.f848b492ddfc1p-3
4=-0x1.abbfe307912ffp-1
5=0x1.c0a34a2bd0418p-2
6=-0x1.62e8e55586257p-2
7=-0x1.36d94f3f3deb4p-2
8=-0x1.7459f1293f1a6p-3
9=0x1.c86f80e88e7c9p-3
10=0x1.fe165b5571c0ap-3
11=-0x1.8bffeb01d939ap-2
12=0x1.0ccefcc69ce81p-4
13=-0x1.d62750bdcc1dfp+0
14=0x1.5e9fe6fe9f1f9p-2
15=0x1.7e81ee5f0274p-2
16=0x1.2d6f8a82d8da6p-1
17=-0x1.6aed40bffe47cp-1
18=-0x1.ccc93cc71d72ep-2
19=0x1.4301e6f4ae95p-6
20=0x1.2d6f8a82d8da6p-1
21=-0x1.6aed40bffe47cp-1
22=-0x1.ccc93cc71d72ep-2
23=0x1.4301e6f4ae95p-6
24=0x1.2d6f8a82d8da6p-1
25=-0x1.6aed40bffe47cp-1
26=-0x1.ccc93cc71d72ep-2
27=0x1.4301e6f4ae95p-6
28=0x1.2d6f8a82d8da6p-1
29=-0x1.6aed40bffe47cp-1
30=-0x1.ccc93cc71d72ep-2
31=0x1.4301e6f4ae95p-6
32=0x1.2d6f8a82d8da6p-1
33=-0x1.6aed40bffe47cp-1
34=-0x1.ccc93cc71d72ep-2
35=0x1.4301e6f4ae95p-6
36=0x1.4d9768e8276a6p-2
37=0x1.1cabe49b675fbp-5
38=-0x1.94ea22c8527efp-3
40=0x1.9c41406b4baa5p-7
41=-0x1.954f43fab38bep-2
42=-0x1.011d46795adcap-7
43=0x1.3b98f68ee5c63p+0
44=-0x1.3151a8c98b62p-8
45=0x1.5d5d9719edef5p-8
46=-0x1.da908d2986a0ep-10
47=-0x1.43f6b38404144p-3
49=0x1.473a8867c0dc7p-9
50=0x1.96ee1ca090acbp-7
51=-0x1.026caca769583p-1
53=-0x1.dccbbba41354dp-18
56=-0x1.7169822acd779p-3
57=-0x1.0f18efc2a36c6p-4
58=0x1.e256b0cb8dc34p-5
59=0x1.3b6208b892218p-3
60=0x1.2d6f8a82d8da6p-1
61=-0x1.6aed40bffe47cp-1
62=-0x1.ccc93cc71d72ep-2
63=0x1.4301e6f4ae95p-6
64=0x1.2d6f8a82d8da6p-1
65=-0x1.6aed40bffe47cp-1
66=-0x1.ccc93cc71d72ep-2
67=0x1.4301e6f4ae95p-6
68=0x1.2d6f8a82d8da6p-1
69=-0x1.6aed40bffe47cp-1
70=-0x1.ccc93cc71d72ep-2
71=0x1.4301e6f4ae95p-6
72=0x1.2d6f8a82d8da6p-1
73=-0x1.6aed40bffe47cp-1
74=-0x1.ccc93cc71d72ep-2
75=0x1.4301e6f4ae95p-6
76=0x1.2d6f8a82d8da6p-1
77=-0x1.6aed40bffe47cp-1
78=-0x1.ccc93cc71d72ep-2
79=0x1.4301e6f4ae95p-6
80=0x1.48c6272a3bff2p+1
81=0x1.59002674308bdp+0
82=-0x1.278929834019cp+0
83=-0x1.487ec4df9a333p+2
84=-0x1.34c040a2a6a5bp-2
85=-0x1.24b7a43621a82p-2
86=0x1.ab83054a11bc5p-3
87=-0x1.5b92792d15e3ap-4
88=-0x1.f73695f476e5p-3
89=0x1.50b7bc6d04632p-3
90=-0x1.cd2b52361d0f5p-1
91=0x1.36c2d0dd12411p-4
92=-0x1.a475b08068a16p-3
93=0x1.6558a842d16cbp-4
94=-0x1.67cce9c11dff5p-3
95=0x1.04ed17e2da6c3p-5
96=-0x1.0545b58fdc322p-1
97=0x1.e3442d93dc60dp-4
98=-0x1.bd1bce5a1354ep-3
99=0x1.71fb1607d002p-9
100=-0x1.715f2980c36d2p-3
101=-0x1.0f81f8413f98ap-4
102=0x1.e2a4fd645b17p-5
103=0x1.3b5e3f681e78ep-3
104=0x1.52e80e4540bdcp+0
105=-0x1.effda5bff6eb1p-3
106=-0x1.5b121bf89470dp-2
107=-0x1.1e635d6dc22edp-5
108=-0x1.0ea7699e51fcfp+0
109=-0x1.92d182c45f5ddp-2
110=0x1.eb7e51ebc8614p+0
111=0x1.878cb90263f54p-4
112=-0x1.ce6ece96f2056p-2
113=-0x1.a9c90171b93bdp+1
114=-0x1.7a9d59b54dcdfp+1
115=-0x1.1da953a50ef5p-4
116=-0x1.a5374068a6ee2p-3
117=-0x1.25949bb9b2cb9p-1
118=-0x1.141d377d1ee8ep-3
119=0x1.e8b9ba1df89a1p-8
120=0x1.be339572a7415p+0
121=0x1.92e39b96fe969p+1
122=-0x1.547d2b5be0524p-2
123=-0x1.df4c02266f392p-4
124=0x1.21c913cf7e1a9p-3
125=-0x1.2a194cc67c657p-5
126=-0x1.c80e915d57a84p-3
127=0x1.25903d1e5fa4cp-8
133=0x1.f130b703089b1p-5
134=-0x1.e03484f5c20a2p-9
135=-0x1.8a0a4449aaf2cp-6
137=-0x1.a7afab645cc55p-3
142=-0x1.e5b722b001388p-13
143=0x1.0cc5f8c983c59p-2
144=0x1.030ee3644fe38p-2
146=-0x1.8a428cbefff66p-2
147=0x1.699ad0b1d5cbdp-7
149=-0x1.c5c6e5a6eff72p-9
153=0x1.0af5eab911ba6p-2
154=-0x1.2256d624d251p-2
157=0x1.825558fdbcf98p-14
164=-0x1.8f79116dd65d9p-2
165=0x1.990b47f1ec17ap-5
166=0x1.1f15d6afa1d03p-1
167=-0x1.f2f8a2d106569p-2
168=-0x1.46f65c0a3fe3bp+0
169=-0x1.1d3b6d1738f28p-2
170=0x1.6acb9082fe396p-3
171=-0x1.f1e4ff582bf19p-3
172=-0x1.9f7897f224dd3p-1
173=0x1.e1013c50ad5fbp-3
174=-0x1.5ae280f6bff18p-3
175=-0x1.084957cd804f9p-2
176=-0x1.6ed1eea1884d9p-3
177=0x1.2a295ba97e772p-2
178=0x1.02e9846f08fc2p-2
179=-0x1.6d400619a9fe3p-2
180=0x1.e3a559a7de0b6p-5
181=-0x1.b83175e4d6e89p+0
182=0x1.56ba15cea6cc4p-2
183=0x1.76e68c9127ee6p-2
184=-0x1.3f53f87b07aabp-7
185=-0x1.47bad90981431p-1
186=0x1.25d80ce21acadp-1
187=0x1.e3754d8df487fp-4
188=-0x1.fa758125b1928p-4
189=-0x1.d0d53b71052eep-4
190=0x1.7020be49b1569p-1
193=-0x1.4c71dc7168336p-8
194=-0x1.8693dae869466p-2
196=-0x1.4d01b13c6ea48p-6
197=-0x1.4f7011d5ca53ep-4
198=-0x1.25ea71391dc7dp-4
199=0x1.20d6fd2379fdfp-10
200=0x1.45a693a0aa479p-4
201=-0x1.25803f33e2fc6p-1
202=0x1.43d52eafd806ep-2
203=0x1.89b7b2466f539p-2
204=0x1.81d9c7a000a7cp-3
205=-0x1.51cbc3b1390b2p-1
206=0x1.102e78a8fe443p-3
207=0x1.929db5fffb078p-5
212=-0x1.6bc160da2ca3ep-7
213=0x1.91c6b65da4165p-5
214=-0x1.234e9c0d39239p+0
215=-0x1.c681f9c32b613p+0
216=-0x1.6fe359ba7376ep-3
217=-0x1.f32b8993c8eadp-5
218=-0x1.0b683dbd3bb66p-1
220=0x1.61ee398263e35p-2
221=0x1.2f1ff58a8569dp-6
222=0x1.ae1c8f7bb9125p-2
223=0x1.477ab27d8cfb7p-3
224=0x1.e629a5c81aecdp-3
225=0x1.a876cd4c2ead6p-4
226=0x1.9f77ff8094412p-4
227=-0x1.3689261d89186p-6
230=-0x1.21fd86b6af8aep-3
232=-0x1.cd99975c11111p-5
233=-0x1.e67f0c582b4edp-5
234=0x1.333edfb60f0cbp-3
235=-0x1.bad3c3bad62b3p-1
236=0x1.25c360b8fed24p-5
237=-0x1.77b97af71119ap-2
238=-0x1.0dfa7fc3a5683p-3
239=-0x1.8ed483d4b8dc4p-5
240=-0x1.a859992c8dd92p-7
241=0x1.d1c53919f9975p-2
242=0x1.7bff46927ced8p-2
243=0x1.29a82bbacefa8p-3
244=0x1.293bb1783f703p-2
245=0x1.0bb86bb3b6863p-5
246=-0x1.20414cc78fdfdp-2
247=-0x1.d6067cd06633ep-8
249=-0x1.e477aaa9f500fp-2
250=-0x1.5752bed4d66acp-5
251=0x1.c595d41b17b12p-8
252=-0x1.b409bdab5e57bp-5
253=-0x1.f50d93dfb1594p-2
254=-0x1.f32c98d2e8beep-9
255=0x1.01b9e0036c02ep-1
256=-0x1.f9662397cbd95p-1
257=0x1.1cdfa24027f3dp-1
258=0x1.63b9d4c2de5d6p-6
259=-0x1.409d64dda39ebp+0
260=0x1.b848d4168150cp-2
261=0x1.6694318b7ff4ap+0
262=-0x1.10619a2c1d964p-5
263=0x1.b0107e5a8920ap-4
264=-0x1.1a9f0805ce0b7p-1
265=0x1.745b7b6aedde3p-4
266=0x1.af2a85ece8ab4p-3
267=-0x1.383f4a28a3dd4p-5
269=0x1.88062c074dd13p-4
270=0x1.c035478556b12p-1
273=-0x1.b9975fc6c371ap-3
275=0x1.b9740dd15a505p+0
276=0x1.3d28bfdad1bcep-4
277=0x1.a43dd8c8ba23fp-3
279=-0x1.ac8b027cffd07p-2
280=-0x1.78c090eaf4994p-1
281=-0x1.d5c3df3474ba4p-6
282=-0x1.af71551fe30ap-3
283=-0x1.85f280033677fp-1
284=0x1.d9eabf6d0669bp-9
285=-0x1.f437d7dca3dbfp-3
286=0x1.19ae3e2a23b5ap-2
287=0x1.00d13a503fca7p-5
289=0x1.180ddc6a51de5p-5
290=0x1.e782aca5d8b71p-5
292=-0x1.c205e26ca1a17p-5
293=-0x1.27eeb0af80f21p-2
294=-0x1.3ffc6116abee2p+0
295=-0x1.8fe93e6590c29p+0
296=-0x1.acb0c53a46ed6p-6
297=-0x1.5c41bad4aba64p-3
298=0x1.7d2ef5bdcbd81p-3
299=0x1.1782621cce466p+0
300=0x1.586af9348dabap-4
301=0x1.d9de5411e5d87p-3
302=0x1.506aef52952edp-3
303=0x1.5a306c7e4d96ap-4
304=0x1.20ae925f2e7b2p-3
305=0x1.c32cfd46f6775p-5
306=-0x1.0ad6f3e101abdp-3
308=0x1.20ae925f2e7b2p-3
309=0x1.c32cfd46f6775p-5
310=-0x1.0ad6f3e101abdp-3
312=0x1.20ae925f2e7b2p-3
313=0x1.c32cfd46f6775p-5
314=-0x1.0ad6f3e101abdp-3
316=0x1.20ae925f2e7b2p-3
317=0x1.c32cfd46f6775p-5
318=-0x1.0ad6f3e101abdp-3
321=0x1.3993af195bacp-5
322=-0x1.4a4e8764dcc2ap-7
324=-0x1.3acb7e81c27e5p-5
325=0x1.eb4ec234db6edp-5
326=-0x1.b1fd5094b8696p-2
327=0x1.0da1d35499439p-3
328=-0x1.2293ea52efe12p-9
329=-0x1.fa6b4b03becb7p-2
330=0x1.8d246190a61bap-2
332=0x1.95a5cfac54678p-1
333=0x1.2d1de2801d1c4p-10
334=-0x1.a5d1eb90698d7p-3
340=-0x1.53503a0e8fedap-4
342=-0x1.f83425f0acdbfp-6
343=0x1.c9d77d6be844bp-5
344=-0x1.6ec2eec6ebbb4p-9
345=0x1.7d4bdaa032a41p-15
346=0x1.97158bf4e192p-5
348=0x1.20ae925f2e7b2p-3
349=0x1.c32cfd46f6775p-5
350=-0x1.0ad6f3e101abdp-3
352=0x1.20ae925f2e7b2p-3
353=0x1.c32cfd46f6775p-5
354=-0x1.0ad6f3e101abdp-3
356=0x1.20ae925f2e7b2p-3
357=0x1.c32cfd46f6775p-5
358=-0x1.0ad6f3e101abdp-3
360=0x1.20ae925f2e7b2p-3
361=0x1.c32cfd46f6775p-5
362=-0x1.0ad6f3e101abdp-3
364=-0x1.91773b6a679f9p-2
365=0x1.432edac2830c8p+0
366=-0x1.d6648ec283cbp-1
367=-0x1.8bd7764b41573p-8
368=-0x1.9510140632994p+1
369=0x1.02a788417b566p+2
370=-0x1.7fffc71811fa9p+0
371=-0x1.e15651e66fc06p+0
372=-0x1.210aede564069p-2
373=0x1.0ca145eca10fap-3
374=0x1.0fb0a54230fc8p-14
375=-0x1.659b71ba8b8ddp-6
376=-0x1.534fd9bf2edb6p-4
378=-0x1.fbdc58dbaad8ap-6
379=0x1.c9da784a6e269p-5
380=0x1.a66cf4860821cp-3
381=-0x1.416093264933p-3
382=-0x1.73e1ecfd118ffp-3
383=0x1.fd65626cf8c6dp-3
384=0x1.a6fe7c67611dcp-5
385=-0x1.4652b6b658506p+0
386=0x1.56ff042deb9c5p-3
387=0x1.c2ea7543d8861p-2
388=-0x1.4d9d666be756dp-6
389=0x1.be3067cf25cc5p-10
391=0x1.cea5827dfa0d7p-3
393=-0x1.5ea79c7b8f98dp-2
394=-0x1.82127f35df826p-7
395=-0x1.582b81f115b6ap+1
396=-0x1.fb8f2e584c5d8p-2
397=-0x1.2c35e751828d7p-3
398=-0x1.9375167cf31b7p-1
399=0x1.ebf65ddb5af99p-5
400=0x1.ac9bbb8c9bff4p+0
401=-0x1.349c6732c5268p-7
402=0x1.0368f08705617p+1
403=0x1.a3ec85343611bp-4
405=0x1.dec267c5f2a0ep-3
406=-0x1.81f213f6eb583p-2
407=-0x1.975f6fe6b8692p-8
409=0x1.38d788ac8425p-3
410=-0x1.30791ed9acbep-10
411=-0x1.9758439fa3cdep-11
413=-0x1.e4aea769c30e9p-3
414=-0x1.700bb059d7dap-2
415=-0x1.4d9f5831ce708p-3
417=0x1.c2385b6c23228p-3
418=-0x1.a496837d4a0ccp-5
419=0x1.2d1cff9dfd40dp-2
420=0x1.158c85e5a9aa2p-4
425=-0x1.bfdaf5bd87beep-8
426=0x1.1ec3119f6adeep-5
429=-0x1.8a4f391ea01bap-2
433=-0x1.b80b4ac2de936p-8
434=0x1.69e637e062751p-2
437=0x1.6637dcd7f4fbdp-4
438=-0x1.75cfd27f46ed7p-2
444=-0x1.f0f7979b04ad1p-3
445=0x1.c020585d72e1dp-5
446=0x1.3ebb845918bbp-6
447=0x1.19312ac28f11p-6
449=-0x1.d944d68ca2578p-4
450=-0x1.085c45eacdaa8p-2
453=0x1.2fee44fb0c908p-7
454=0x1.afdfa3d914a04p-8
455=-0x1.56ece77704169p-3
456=-0x1.118b91ede9f48p-5
457=0x1.19c8c5698cb0ep-4
458=0x1.463639635cb02p-2
459=-0x1.7ba7652f3a8dep-4
461=-0x1.7febe724af585p-6
462=0x1.75f6fae929114p-3
463=0x1.e741f5d6f19f8p-4
464=-0x1.a7372819fd68dp-3
465=0x1.4e04151efc2adp-2
466=-0x1.1d6b12beafeddp-2
467=-0x1.364d1c3c2a262p-11
469=0x1.8efda7756ae12p-2
470=-0x1.cb0cc88440245p-3
473=0x1.355dfe833483ap-5
474=0x1.1fd8962932f21p-2
475=-0x1.48bf75f6f3834p-3
477=0x1.7dc659c61b07ap-4
478=-0x1.745fe8edea0bdp-3
479=0x1.3c02745bf3fe9p-3
481=0x1.2ed5888e3345p-5
482=-0x1.e57aaf493e8f5p+0
483=0x1.e665f4a1edd3cp-6
484=0x1.ee1a60b0821f4p-4
485=0x1.01b7c33d0b363p-4
486=0x1.815a6ff4d7aacp-4
487=-0x1.355cd56918d01p-4
489=-0x1.5679586e62c87p-6
490=-0x1.251bb86599632p-2
492=-0x1.cc5ac0a182a2cp-6
493=0x1.7910a8b03972ap-4
494=0x1.6b55c8702188bp-5
495=-0x1.16be3abd48ac7p-3
496=-0x1.1a9383fc77a78p-3
497=0x1.8585f11752f7ap-4
498=0x1.be447f0990d11p-4
499=0x1.0b79667bd1499p-2
500=0x1.17d00da1ecb42p-1
501=-0x1.174be8b25c8ecp-2
502=0x1.8e48e2d383a96p-4
503=-0x1.a2930b5899847p-6
504=-0x1.8cef8cf88200dp-3
505=-0x1.6cf24a03ee684p-9
506=0x1.b476b701d055fp-7
507=-0x1.2d972bea03345p-7
508=-0x1.8a1d9b18019bbp-4
509=0x1.5498173f9ff84p-1
510=0x1.5a4bbac6afa7ep-2
511=-0x1.078aa75950dc9p-5
512=0x1.4bb44d01cff8ap-7
513=-0x1.34a69cba250bep-1
514=-0x1.bc886f9a2a399p-5
515=0x1.7a5df8659b011p-3
516=0x1.6369e80d71edbp-5
517=0x1.2ba89e001d2dfp-3
518=0x1.ff59a83a92eefp-2
519=0x1.33c0323c8e3b2p-2
520=-0x1.002ddd1bd1fdep-4
522=-0x1.a4a9353291c7p-2
523=-0x1.ad89e5db7dd1ep-4
525=0x1.33e33029ebec5p-6
526=-0x1.1e90c24857adep-3
527=0x1.3311a14bd73dcp-12
529=0x1.2f7be867e5c66p-4
530=0x1.2189bc0b80918p-10
533=-0x1.1e4fade2e72c9p-2
534=0x1.0e14f09a1cef1p-8
535=-0x1.9e0a0dd06a7b8p-2
537=0x1.8de3b90426367p-2
538=-0x1.11963da298c16p-1
539=0x1.d170f6031227dp-4
543=0x1.985f2fe95991ap-2
545=0x1.9d23a129a0b95p-10
546=0x1.0e884c9fb239cp-4
553=0x1.c8828387a1e5fp-6
554=-0x1.308eccd0c513dp-7
555=-0x1.ee4b33e060f8cp-8
557=-0x1.e5be0f0f398c9p-6
558=0x1.2be560133a33p-2
559=-0x1.c0df2cf11bdacp-7
563=0x1.93edda2f94302p-8
564=-0x1.bcf13ba0d67dep-3
565=-0x1.4441aa0fbc8ddp-4
566=0x1.feb23fc400854p-3
568=-0x1.bcf13ba0d67dep-3
569=-0x1.4441aa0fbc8ddp-4
570=0x1.feb23fc400854p-3
572=-0x1.bcf13ba0d67dep-3
573=-0x1.4441aa0fbc8ddp-4
574=0x1.feb23fc400854p-3
577=0x1.595edcfaffee2p-8
578=-0x1.01187963073b8p-14
581=-0x1.4dfb1fb56de9p-7
582=-0x1.c3fc467d6242p-6
583=0x1.94dd0bba113b6p-3
585=0x1.b3148a753d0f8p-3
586=-0x1.2a4aad79b2e79p-6
588=-0x1.574f663879502p-8
589=0x1.778fc9b8ecf7cp-3
590=-0x1.880395efb2ce3p-8
593=0x1.2215045b17203p-4
594=-0x1.e9beedb639f1cp-9
596=0x1.c278fb14ba03p-4
597=0x1.025346e4a78aep-3
598=-0x1.76e4361b70a3dp-6
599=-0x1.720d1dfa10135p-2
601=-0x1.f2785bc79efa3p-7
602=0x1.29b77bc54ad2p-2
603=-0x1.40a22e073f825p-3
604=-0x1.bcf13ba0d67dep-3
605=-0x1.4441aa0fbc8ddp-4
606=0x1.feb23fc400854p-3
608=-0x1.bcf13ba0d67dep-3
609=-0x1.4441aa0fbc8ddp-4
610=0x1.feb23fc400854p-3
612=-0x1.bcf13ba0d67dep-3
613=-0x1.4441aa0fbc8ddp-4
614=0x1.feb23fc400854p-3
616=-0x1.a25cac2af2149p-2
617=0x1.58c11f5b88f19p-2
618=0x1.66bb244bce97cp-6
619=-0x1.5c94b51934c64p-7
620=-0x1.5a8b720da577fp-1
621=0x1.2052a52b59bffp-1
622=-0x1.a355ce320e801p-1
623=0x1.dbd2ba259fbb5p-5
625=0x1.348adaf39c8c4p-5
626=0x1.15c06bd9b9c1p-5
627=0x1.0ac3e174071f3p-4
628=0x1.c2786b4f376adp-4
629=0x1.026fc4091c26dp-3
630=-0x1.76e006078ea8ep-6
631=-0x1.71f4aefc04033p-2
633=0x1.344ad34aa0608p-3
634=-0x1.585b93c87ae33p-4
635=-0x1.d1b1627db368bp-13
637=0x1.36b90c024428p-3
641=0x1.b75a761cabe24p-4
642=-0x1.b6c7fc8785257p-6
645=0x1.00c495ea1faa1p-5
646=-0x1.30002316abe54p-8
649=-0x1.0bf9a703e9311p-6
653=-0x1.f0affbd31adb5p-6
654=-0x1.ae35dec5c22c3p-9
655=0x1.b0ebb3c973f9p-4
663=0x1.0cc3b2fb0c49cp-10
665=-0x1.13c7cdc6d82d3p+0
667=-0x1.14df8ddc62f55p-5
671=0x1.b04667602964fp-2
673=0x1.27e7b473e87d6p-3
674=-0x1.04e880111f3d6p-3
675=-0x1.4000df20e84dcp-6
681=0x1.a2bf26ffbd9f5p-2
682=-0x1.78deb6eed0b9dp-4
685=-0x1.a1148430cea63p-3
689=-0x1.267c596689904p-7
693=-0x1.4a60dc7b10fd1p-5
694=0x1.63ff53b51289dp-4
695=-0x1.ae2161ac62a7fp-6
701=-0x1.49cd3c167b56cp-6
702=0x1.6cde6358b03e3p-4
703=-0x1.e4a9beeb045c1p-4
705=0x1.10ddb9148d5e4p-9
711=0x1.67db7b6c0505dp-7
713=-0x1.d3b89a3e1a8c5p-4
714=0x1.d9265d2877d8ep-9
717=0x1.ed453c928d0efp-3
721=0x1.023797ebc2a72p-8
722=0x1.66289d0704167p-4
725=-0x1.7bbcc9eefabc8p-2
731=0x1.69875ae21f1b8p-6
733=0x1.e0a339c1e8dc7p-2
734=-0x1.75cc8ba18ae4ap-2
735=-0x1.f69ee56c1fc9ep-15
737=-0x1.04d3f9b007cbdp-8
741=0x1.a71a211cd97f6p-4
742=-0x1.2c2d00383fd04p-5
745=0x1.d138c40a6efc5p-3
746=-0x1.28517e37beddcp-1
753=-0x1.8911d33d168a5p-4
754=-0x1.11259640a96edp-2
755=0x1.d5608a15095f3p-2
761=-0x1.992df1a1c640ap-3
762=0x1.0da26ca03d681p-1
763=-0x1.c8c2d90a117aap-5
765=-0x1.98066a93c033ap-5
766=-0x1.766b538798621p-6
769=0x1.1192b2a118dd3p-2
770=-0x1.030c60afb700bp-4
771=0x1.e61f21edf4b5ep-2
772=-0x1.e54486f59f6dcp-10
773=-0x1.4a13431f40cdep-10
774=-0x1.e450d1a23073fp-9
775=0x1.f7db47bdf265dp-9
781=0x1.aa1346fae2462p-4
782=0x1.39575bb2296f7p-2
783=0x1.9c882b5b5ce31p-4
784=0x1.37a706ca2ff44p-5
785=-0x1.dd55fd443e059p-4
786=-0x1.36ee6e73907aep-5
787=0x1.a5388d8093ca2p-3
789=-0x1.66743681688aap-8
791=0x1.174cb370ef442p-3
793=-0x1.2eb085f75722fp-6
794=0x1.1eece60c60a67p-6
795=-0x1.476eac08488e9p-10
797=-0x1.2f4f0b58c2ea5p-3
801=-0x1.ddf599e772f1ap-7
802=0x1.a0078331fae41p-3
803=-0x1.5740581d4128dp-2
805=0x1.e873ecf690962p-5
806=-0x1.abdc23df1d16cp-10
807=-0x1.2176cb78a7adp-6
809=0x1.0a94cb581f5f1p-2
811=0x1.2f42ebb7d1c4fp-2
812=-0x1.1c60eef79f47cp-7
813=0x1.eac16da4bbdc1p-7
814=0x1.5bccefabee28ep-10
816=-0x1.1c60eef79f47cp-7
817=0x1.eac16da4bbdc1p-7
818=0x1.5bccefabee28ep-10
820=-0x1.15ddf767b22e5p+0
821=-0x1.2d8b7b9317d52p-4
822=0x1.a901fa87308a3p-1
825=0x1.3a8d0a11a6d14p-10
826=-0x1.c34e7f8c0fae9p-5
827=0x1.bea3fb089b3b2p-7
829=0x1.eb27a446d40d8p-12
830=0x1.f2d99a82a5349p-5
831=-0x1.664d8600e7332p-2
833=0x1.fbfa1fb06c935p-5
834=-0x1.93a3b17310672p-7
837=0x1.cf57cd23e21d1p-7
839=-0x1.bea299cdea377p-3
840=0x1.e36f89f36e03bp-2
841=0x1.7087486c63a47p-2
842=-0x1.d86aabacdeffap-5
843=-0x1.5c028d748e5b2p+0
845=0x1.8ff1c363216a8p-5
846=0x1.3e4c128645551p-11
847=-0x1.e049df29ab4e2p-4
852=-0x1.1c60eef79f47cp-7
853=0x1.eac16da4bbdc1p-7
854=0x1.5bccefabee28ep-10
856=-0x1.1c60eef79f47cp-7
857=0x1.eac16da4bbdc1p-7
858=0x1.5bccefabee28ep-10
860=-0x1.bb1ca9860f028p-1
861=0x1.bf6cc6dffac4p-3
862=0x1.2201209d79e76p-3
863=-0x1.381d7b023f49ap-5
864=-0x1.58a828d1bddb1p+1
865=0x1.9305e5b3651e9p-5
866=0x1.cc17644e3f9c7p-2
867=0x1.e0422e66ce82ap-5
868=-0x1.ab317ac927dffp+1
869=-0x1.2b2063b0642bp-5
870=-0x1.39e908718bb9p-2
871=0x1.b342a3b2b557p+0
872=0x1.e36e1c02bf70cp-2
873=0x1.6fa7b9e1eccb5p-2
874=-0x1.d578611ef3a2cp-5
875=-0x1.5c24cdf93edfdp+0
876=-0x1.76aa301077151p+0
877=0x1.70df0fbf41247p-2
878=0x1.8a98acba2ff5ep-8
879=0x1.070130106b357p-3
881=-0x1.211a637553936p-7
882=0x1.92ae647808e1ep-10
883=0x1.24bc346b84041p-4
889=0x1.54cd61d8506ecp-4
890=0x1.fcc72f4747abap-6
891=-0x1.f860309a66522p-7
893=-0x1.5abca8656005bp-1
894=0x1.0580a876397e8p-15
895=-0x1.b8a2432c8545p-12
898=-0x1.6480b621f694dp-7
899=0x1.65bdf78a290d8p-3
901=0x1.0d41cd18bdf7ap-6
909=0x1.b3a159311f28fp-3
913=-0x1.8f68ac00a4b36p-1
921=0x1.379643ba4587cp-9
922=-0x1.4cf2109b9cf1p-9
929=-0x1.e3c0ca4c0f668p-11
933=0x1.918ed213006a2p-1
941=0x1.8adf713e5a5cp-7
942=-0x1.0f794667a4f57p+0
943=0x1.1ecc7ba8aed1cp-3
945=0x1.c6024579e163ep-4
949=0x1.0a716d3e83362p-5
950=-0x1.c0404428cc5a8p-3
951=-0x1.7999ba2158632p-4
953=0x1.e24ce85b4388p-7
954=-0x1.9e604cb44d064p-2
955=0x1.42a3d09be4f2fp-4
957=-0x1.2b42fc44a871p-3
959=0x1.b7313effdf77p-2
961=0x1.418c658b28922p-4
962=-0x1.0f88750380fe8p-5
969=0x1.0bf7fc6edcdcp-1
970=-0x1.7232eb5c23754p-7
973=-0x1.7584afea2ca39p-1
981=-0x1.22aceffcd448bp-5
982=0x1.5af30f0d98d5bp-3
989=-0x1.0b0fbf412970cp-8
990=0x1.2e76b6a28c798p-2
991=0x1.41d0cb68b5f85p-8
993=-0x1.41b142fedce4cp-8
995=-0x1.6e6d3f6ff56cep-6
1001=-0x1.730d3604f495ep-4
1002=0x1.32b9da738265ep-4
1003=0x1.9b51936634931p-7
1009=-0x1.02967cb7ddc91p-6
1010=0x1.6e951bffeeb0dp-3
1011=0x1.db142dccec11ep-3
1013=-0x1.681824ebb4896p-3
1015=-0x1.53aba300aa9b3p-4
1027=0x1.c32ef5b4f723cp-9
1029=-0x1.ceaa2c5d99665p-4
1030=-0x1.793c278495b03p-9
1033=0x1.18bbd4680e04ap+0
1041=0x1.ae741f411ad6ep-11
1042=0x1.14e5eab8c3fb6p-8
1049=0x1.fc2d574005394p-6
1050=-0x1.0061d18b7d2cp-8
1061=0x1.a254942e46896p-3
1062=-0x1.721af0c68e96cp-3
1064=0x1.d3c7d2fb1b992p-5
1066=-0x1.ee97b7dcbbb85p-4
1067=0x1.784d3e0b81559p-4
1070=0x1.6a14302d91991p-5
1071=-0x1.b7006ebbebb63p-6
1073=0x1.f8080c9a0e87fp-9
1074=0x1.78d9279876132p-6
1075=0x1.2f4065df76bap-5
1077=0x1.3e74a69d1d572p-5
1078=-0x1.0af0a0d7db6a7p-7
1079=-0x1.5db87d465a9f2p-9
1081=-0x1.9b625cbbb9286p+0
1082=0x1.d9d5fe8d9d2e2p+0
1084=-0x1.4434d81392a34p-1
1085=0x1.b11b52665ad3p-3
1086=0x1.0ba44eac5ef71p-6
1087=-0x1.b64e6f3842165p-1
1089=0x1.d34ffa5d261fp-3
1090=0x1.9eba1405eff77p-1
1091=-0x1.5abcdeda0a0a4p+1
1093=-0x1.00a27e49028f5p-5
1094=0x1.2e98820372f27p-5
1096=0x1.c6491f1d979afp-2
1097=-0x1.efe289dfe90acp-6
1098=0x1.8798d33c033abp-11
1099=-0x1.f16d19e8c1e1cp-6
1101=0x1.a254942e46896p-3
1102=-0x1.721af0c68e96cp-3
1104=-0x1.77068626da067p-3
1105=0x1.509a31cf51247p-3
1106=0x1.b3a53c62e1883p-4
1107=-0x1.e322c4090bd66p-3
1108=-0x1.64e07608a55e6p-2
1109=0x1.04b77b4d7b394p-2
1110=0x1.1ba2f21827328p-2
1111=0x1.3190771afcd7dp-5
1113=-0x1.bfe6f150e08f8p+0
1114=0x1.606b4bf7bf272p+0
1115=0x1.37f6264fbdeffp-8
1116=-0x1.44420e5bef61p-1
1117=0x1.ac4f3103f7b58p-3
1118=0x1.29437e8fcd854p-6
1119=-0x1.b77937e3a25cfp-1
1120=-0x1.6af222d0cf5c3p-1
1121=0x1.1bc9ae42312cep-3
1122=0x1.32f97af2621edp-2
1123=-0x1.21463edd4237p-2
1124=-0x1.0ed6eb92d215ep-3
1125=0x1.d74d8a81d62a7p-4
1126=0x1.13f34d90c10bep-3
1127=-0x1.4d7fff27a1ca8p-3
1129=-0x1.58dc6484ce7c2p-10
1130=0x1.ee3e5613d0d4cp-5
1131=-0x1.9e965e817be15p-5
1137=0x1.33db41136ec18p-7
1138=0x1.6b3b9fd760959p-5
1139=-0x1.9ce12b4978646p-6
1149=0x1.49f9c96b06e9ep-6
1150=-0x1.4360f8917b53ep-7
1157=0x1.aed1952b1faefp-4
1169=0x1.eb367923339c5p-3
1170=-0x1.4dc54e5e0c533p-4
1171=-0x1.701c6087d87cap-6
1177=0x1.2135d80a2e167p-1
1178=-0x1.39c570ee85e5fp-5
1181=-0x1.965c2a82bf0fdp-1
1182=-0x1.e8bd9c8ec9695p-8
1183=-0x1.577cef0651e31p-6
1189=0x1.6aa19210aad1ap-5
1190=-0x1.f2e175635b9cfp-6
1197=0x1.f45dbc84adbccp-5
1198=-0x1.d58e67dac1139p-7
1209=-0x1.1e69d94017b12p-4
1211=0x1.bdce1d50c16bfp-7
1217=-0x1.046b8cdec2dp-5
1218=0x1.a93000f445a01p-8
1219=0x1.a90ceb1ee5fe7p-4
1228=-0x1.777845a46bcc3p-8
1229=0x1.600f0eba4cab7p-4
1230=-0x1.acdc6d4cb20bap-5
1231=-0x1.149902f48069cp-4
1233=-0x1.2b8fcd98cfc2p-12
1234=0x1.e0a5de6e59f32p-7
1237=0x1.12c7a3609cbdp-6
1238=-0x1.8099cce26059ap-4
1241=0x1.5c12e7b4875b3p-3
1242=0x1.489a1ce36d7dcp-5
1244=-0x1.49fe1a889566bp-15
1245=-0x1.d563d76ca9cafp-5
1246=-0x1.0b3896de19a0dp+0
1249=0x1.fb910b73b941dp-4
1250=-0x1.06c695e5ac9aap-2
1251=0x1.222b45f54d83ep-6
1257=0x1.873505e788597p-2
1258=-0x1.5de28bbad8d2bp-3
1261=-0x1.d6a45b6d5f86dp-2
1267=0x1.7e0453e75f611p-8
1270=0x1.ce184eb98f111p-7
1277=-0x1.171bd49a2a0bep-8
1278=0x1.0f4eeefca4a5fp-4
1281=0x1.7437394be3cebp-4
1288=-0x1.40c7624da3fc9p-7
1289=-0x1.59253131f32dbp-3
1290=0x1.83b7e0b59e7ccp-1
1292=0x1.63cbea59281d3p-9
1293=-0x1.0fe1fceb1990cp-3
1294=0x1.6416c371015a5p-5
1295=0x1.fd26fd4dfd1bfp-4
1296=0x1.2c36d3393a88dp-8
1297=0x1.7dc8dc83ff66bp-5
1298=0x1.af6fa494311c4p-5
1299=0x1.0c588a900eecep-7
1301=0x1.19bcff2efa54p-2
1302=-0x1.c86859d987285p-6
1303=-0x1.0656123b79ee4p-5
1304=-0x1.8c21a77c2ff04p-12
1305=0x1.b2922f60d5a3cp-4
1306=-0x1.749a54dd171c7p-1
1307=0x1.719496adab0e5p-4
1308=-0x1.94a5f55a628bp+0
1309=-0x1.d8f3af9e62619p+0
1310=-0x1.40acc5a6eab44p-2
1311=0x1.ef859da28921fp+1
1312=-0x1.8e7146052c5b6p-2
1313=-0x1.e13575f5825e3p-1
1314=-0x1.c6bbab9c0d0a1p+0
1315=0x1.43a3902298f16p+2
1316=-0x1.47f6fcb448408p-8
1317=-0x1.26c101077c375p-7
1319=0x1.f28d6e17d096bp-3
1320=0x1.92aa166e949a2p-4
1321=0x1.11a60f3b16ba6p-5
1322=0x1.43bff6e6e6e7p-12
1323=-0x1.af5cfbd5577a9p-4
1324=0x1.fb7cb1f539e5ep-2
1325=-0x1.25682b85b9314p-5
1327=-0x1.defc7b99013c8p-3
1328=-0x1.4f052eeb9420fp-2
1329=0x1.18893ef42f7a6p-3
1330=0x1.a2613b6e38383p-4
1331=-0x1.65e15ed78def7p-4
1332=-0x1.64f1f9355132ap-3
1334=0x1.8b3a293e36b8fp-2
1335=-0x1.136822409f78dp-2
1336=-0x1.3aaa3014934ffp-11
1337=-0x1.0466be337ca9ap-4
1338=0x1.670c2192ab736p-2
1339=-0x1.8ea5b6e51fffdp-2
1340=-0x1.9b60da92f81eep+0
1341=-0x1.e462f269831a7p+0
1342=-0x1.1a7709e0a29cap-1
1343=0x1.513ea2f17a3fap+2
1344=-0x1.82bbc61a2fc5ep-5
1345=-0x1.17ebf270d68acp-6
1346=-0x1.6e161bcdd583p-5
1347=0x1.b866a8636c122p+0
1348=-0x1.4ba854f35e414p-3
1349=0x1.696ea74f5eae4p-6
1350=0x1.57c7caac6b952p-3
1351=-0x1.35a687b6a8291p-5
1352=0x1.0bbe40939b918p-2
1353=0x1.9fefa7e8c007cp-2
1354=-0x1.681c2542f7dfap-3
1355=-0x1.868ba29436ee2p-5
1357=-0x1.c22cdfac814dp-6
1358=0x1.3c0ca1cafdce5p-2
1359=-0x1.f5b8150e19b1ap-1
1360=-0x1.3f1acf6beb5d9p-6
1361=-0x1.8448abb6acaafp-4
1362=0x1.138ae01f5de1cp-3
1363=-0x1.12b119ea7a76ep-5
1364=0x1.d7caf680a763ep-2
1365=0x1.4d8748cb39271p-6
1366=0x1.2ce97abb28647p-3
1367=0x1.030c3fb3c86cdp-2
1368=-0x1.5297974b89cf2p-4
1369=0x1.ab6bb16e6e975p-3
1370=0x1.fcd577863915p-1
1371=-0x1.162a88bf7d4a5p-1
1372=0x1.29264961dde64p-2
1373=0x1.6c73a174926bap-3
1374=-0x1.59dee2e20611p-4
1375=0x1.b25a43becc782p-8
1381=-0x1.19c0bf127816bp-4
1382=-0x1.0f27ba61da771p+0
1383=-0x1.87af91790e0ap+0
1384=0x1.3661a8dbf67fep+0
1385=0x1.835ac8e4d0b9dp-1
1386=0x1.185fbcb7dc9b1p+0
1387=0x1.12e2c4f364caap+1
1388=-0x1.8e72bd5450eaap-12
1389=0x1.5b69c9bcb46c4p-1
1390=-0x1.4935b2fb783d7p+2
1391=-0x1.2524c5c562904p+1
1392=-0x1.064043d138d84p-4
1393=0x1.4515caab9d8bfp-5
1394=-0x1.670d668c9e558p-2
1395=0x1.5fc18f565eed4p-3
1401=0x1.010415311249ep-3
1402=0x1.a2b1e83649c61p-8
1403=-0x1.0b1486b2743a9p-1
1404=-0x1.8ced9e8933f6ep-9
1405=-0x1.67eabf4e38c33p-5
1406=-0x1.bce867891dadap-3
1407=0x1.91c3808a10affp-2
1410=-0x1.0f11a4723151cp-2
1411=0x1.30ef739c0fac5p-4
1412=-0x1.4da0bdc5a73cbp-4
1413=0x1.0fedd2471342fp-4
1414=-0x1.db5913ce05b05p-7
1415=-0x1.a7ceb51f81efcp-6
1417=0x1.b4d5c231a1082p-4
1418=-0x1.91590300b24d3p-7
1421=0x1.28cb8601c8034p-12
1422=-0x1.22a458833edadp-3
1424=-0x1.59b02fbdf4a3ap-4
1425=0x1.46cc711b42ecdp-4
1426=0x1.a01b66120bb26p-3
1433=0x1.8e22adf564d15p-2
1434=-0x1.045d505fcfdfdp-4
1437=0x1.4f2ba2c625ee9p-3
1441=0x1.3291ff0260b4fp-7
1442=0x1.a5f217df315bep-3
1443=-0x1.3a1a9679c6ee5p-3
1445=0x1.e77d74c4c7868p-5
1446=-0x1.bbcdb0c97ef15p+0
1447=0x1.dfd301503fd1dp-4
1453=-0x1.f665c0f51dafap-10
1454=-0x1.39333ce15134bp-6
1455=0x1.92b544671a218p-3
1461=-0x1.ee8f4065b64cbp-4
1462=0x1.3209c89feb1f8p-7
1463=0x1.c8e81f0c70142p-8
1465=0x1.3931b05817b78p-5
1466=-0x1.035cb4853ee5bp-2
1471=0x1.68bb93abfc882p-7
1473=0x1.2798479ebea2fp-6
1474=0x1.7db223dfaf282p-11
1475=-0x1.aec76c0c0936cp-7
1477=0x1.213c028e30004p-5
1478=0x1.001b3444c0adcp-2
1481=0x1.5dc2d2a6b2bc5p-7
1482=-0x1.24f3cc1c68785p-5
1483=0x1.0634624fc74a1p-3
1485=-0x1.70b5fff28aa5p-7
1487=-0x1.919a8cadce99bp-3
1493=-0x1.0995daaa35585p-5
1494=0x1.618727e9d0916p-5
1501=-0x1.55270163116b4p-6
1502=0x1.2a12773c6f351p-3
1503=-0x1.fd91eef97d361p-3
1505=-0x1.748c80d55bca3p-4
1506=0x1.fe795fce1b1abp-3
1507=0x1.316c25792eb3ap-4
1509=0x1.ab227aecc60ap-3
1510=-0x1.9ec262d3c0bc7p-1
1511=0x1.23a3e3ca8c4b7p-4
1512=0x1.1d3b8083e49bcp-9
1513=-0x1.014b6f0756564p-3
1514=0x1.060daddfb6c47p-6
1515=0x1.641557ad76bd7p-2
1516=-0x1.809d822cce5e2p-3
1518=0x1.643b333716f54p-5
1519=-0x1.5fe5ec8200808p-7
1520=0x1.a63030cab5445p-10
1521=-0x1.669b670eb620dp-10
1522=-0x1.6dd3ddb09ec09p-10
1523=0x1.7b4e494e84c8p-6
1524=-0x1.1038fd1012913p+2
1526=0x1.4bae6241b7d6cp-4
1527=0x1.b520e914e2ee8p-5
1528=-0x1.1dcc3d2ea1348p-2
1529=-0x1.1d8b502a245bbp+1
1530=0x1.4d346462b7e83p-1
1531=0x1.340200fa38c0ap-3
1532=-0x1.a34d19bdf9cd2p-7
1533=-0x1.2b410513454a5p+0
1534=0x1.09186be5a0edap-4
1535=0x1.937b0d4c5d7f7p-1
1537=-0x1.017f993a513f4p-4
1538=0x1.a50b1e5ea920dp-6
1539=0x1.50d29ae85c338p-1
1540=-0x1.e027db7588dbp-4
1541=-0x1.21c0c69f624d4p-3
1542=0x1.78610012bafb1p-4
1543=0x1.8a458e170332ep-4
1544=-0x1.679b4543d94a9p-4
1545=-0x1.a577bbb50456dp-5
1546=0x1.3a99f7b30fabcp-5
1547=0x1.a33ec4319a33fp-4
1548=-0x1.2be7e92589669p-3
1549=0x1.bc6b1fdd02cebp-6
1550=0x1.755bc61f6d092p-2
1551=-0x1.a88e70881a5e1p-2
1552=0x1.02c0893cedd88p-1
1553=-0x1.35ae828302902p-3
1554=-0x1.f46dc122877bfp-3
1555=0x1.1b93af108e703p-5
1556=-0x1.1e16ac833cd64p-2
1557=-0x1.454f4b195f0e7p+1
1558=0x1.5654baf372ec3p-1
1559=0x1.33b7dcf84091ap-3
1560=-0x1.7e2129869195bp-2
1561=-0x1.54375320252f6p-3
1562=0x1.92499cc0754eep-7
1563=0x1.a752e0f7d294cp-2
1564=-0x1.9c83298dae012p-1
1565=-0x1.6d3df1005c4b5p-4
1566=0x1.e08774715187ap-3
1567=0x1.8dff9413f243ep-6
1573=-0x1.0dc1a4b565df5p-5
1574=0x1.0462f9bdd708cp+1
1577=0x1.e2a871fbf35cp-2
1578=-0x1.ef96632ba3bbdp-1
1580=-0x1.ae66773e9ea95p-1
1581=-0x1.9d178cb9d8591p-4
1582=0x1.48362500014d6p-3
1583=0x1.5290583d47f4bp-5
1584=-0x1.7fe926a58d304p-1
1585=0x1.3d767e16bbdf2p-3
1586=-0x1.e2620f7b2dae8p-6
1587=0x1.91f67e65fde23p-4
1589=0x1.7dd739b3ba142p-3
1590=0x1.d07180d0c2229p-5
1593=-0x1.2f7aa45f4b90ep-4
1594=-0x1.7b229148a2368p-6
1597=0x1.d49425c3182c9p+0
1598=-0x1.c9de0fded6942p+0
1600=-0x1.78b92c875edb5p-1
1601=0x1.2210344fed2e4p-9
1603=0x1.cf59c826cd9eep-3
1604=0x1.0cc55088c796ap-4
1605=-0x1.4e42c4d59deb8p-5
1606=-0x1.b672366f6522ep-4
1607=-0x1.9366ad7106afbp-9
1610=0x1.e6e04993e2a32p-3
1613=-0x1.2583d23bf461ep-4
1614=-0x1.35e0e20c38994p-3
1615=-0x1.ff0290331567ep-5
1617=-0x1.1046eceffc3cp-6
1618=0x1.2cbd2213d5c96p-4
1619=0x1.3deb198af0155p-5
1620=0x1.655f143b02184p-3
1621=0x1.3dc7e327c8c0ap-2
1622=0x1.9a753e620c056p-6
1623=0x1.ede624d5558d9p-7
1624=0x1.1f1472dcc5208p-1
1625=-0x1.8f77a54944b18p-2
1626=-0x1.27d43ddee1382p-7
1627=-0x1.ecceddae1e45cp-4
1629=-0x1.afed037608251p-3
1630=0x1.b30098aabf9c7p-5
1631=-0x1.26c7435e2ddd3p-7
1632=-0x1.32c20bdbf1f2ep-8
1633=0x1.6324db94c34bp-6
1634=-0x1.71062f1b510d7p+0
1635=-0x1.0ba264cfaf491p-3
1636=-0x1.8c3d2e79d7f6ap-1
1637=-0x1.61ef145605d34p-2
1638=0x1.624ba87b395dap-3
1639=-0x1.de76b7e9dced3p-5
1640=0x1.dfc3be3af2225p-1
1641=-0x1.4457feeeb86cp-1
1642=-0x1.3f7fcdffbf3ecp-6
1643=0x1.1225f6ca8de13p-5
1644=0x1.5a7f446de2629p-4
1645=-0x1.be3764a20b521p-1
1646=0x1.f91537afe07b9p-4
1647=0x1.90f4b19352694p-3
1649=-0x1.3bb677df6eeabp-1
1650=0x1.62a44a27fb077p-3
1651=-0x1.0379366536af7p-7
1652=-0x1.efeedb47c9fep-3
1653=0x1.4bb14271662dap-3
1654=-0x1.ecb09a69e847fp-8
1655=-0x1.479b90ac1d64ap+0
1656=0x1.2a7aad0fabffp-5
1657=-0x1.3bb8438bfe00bp-1
1658=0x1.167471928f383p-3
1659=0x1.c59b26af4765dp-2
1660=-0x1.051f56fa357fap-2
1661=0x1.14203a56859c3p-1
1662=0x1.375753e6e0a5cp-2
1663=0x1.3c88890785aa8p-2
1664=0x1.6b77ee961ee11p-3
1665=-0x1.5633ac36fe87ep+0
1666=0x1.386861928c225p-5
1667=0x1.2cee1b647e621p-3
1670=-0x1.0dd466feb7061p-5
1672=-0x1.1bc8c719a8b8p-5
1673=0x1.3603d07f065fap-9
1674=0x1.3a9aebc833a62p-1
1675=-0x1.40caa7c330e8cp-1
1676=-0x1.27c3b3056e97ap-1
1677=-0x1.650a21e0a837ap-11
1678=-0x1.3904e7d47262ap+1
1679=0x1.d9fb4b25c66fep-5
1680=0x1.ffe4f742a9c83p-4
1681=-0x1.958393dafc13ap-3
1682=0x1.f3dc3dcce27dep-3
1683=0x1.86129aea70ff8p-3
1684=0x1.0e82f7f7519e8p-2
1685=-0x1.549f871bfff3p-1
1686=-0x1.916efa481f28ap-4
1687=0x1.547c8b7624adp-8
1689=0x1.30684535ca8cap-3
1690=0x1.2f08e64b32729p-5
1692=-0x1.19036e590f573p-7
1693=-0x1.eaf56aebc368bp-3
1694=-0x1.87ad5748a37d4p-1
1695=-0x1.49f1648bef116p-7
1696=-0x1.a9958e1bfc8b9p-1
1697=-0x1.3ce4619794706p-2
1698=-0x1.2a71551adf8b9p-3
1700=0x1.173fa46714006p-1
1701=0x1.43cb44ff5533cp-3
1702=0x1.bcff53489a4f6p-6
1703=0x1.be3ea6cfa0d6cp-4
1704=0x1.c9ba5c807c231p-2
1705=-0x1.638df3ea9ed0cp-5
1706=-0x1.ccdf660558f1ap-3
1707=-0x1.38be5a1bc5322p-6
1710=-0x1.5327ec5e8baefp-6
1712=-0x1.af5647e70437bp-3
1713=0x1.b9985ecf79787p-7
1714=0x1.1f5fe5438e6fdp-3
1715=-0x1.0b1b885778622p-6
1716=0x1.8a1f29cf4dc56p-3
1717=-0x1.412e04d99d0e8p-1
1718=-0x1.f3ca8cf6a500ep-3
1719=-0x1.6a88c0e8c8dfdp-6
1720=0x1.36710e09afe3fp-2
1721=0x1.90dd873d06c44p-3
1722=0x1.a0d388b1dc517p-5
1723=0x1.050defee06e8dp-4
1724=0x1.e8609a30db3p-6
1725=0x1.a45d94e92a996p-5
1726=-0x1.cdc825fcefdeep-5
1727=-0x1.9b0e9349ee038p-5
1728=0x1.192aeafa6d786p-1
1729=0x1.4a5354e983111p-4
1730=-0x1.64823ffb887bp-4
1731=-0x1.36e7f4f02121ep-3
1732=-0x1.b2853e8bfff6p+2
1733=-0x1.945cfdae6176ap-8
1734=0x1.18037967aab5ep+0
1735=0x1.eef677dd98774p-6
1736=-0x1.9a364eeedf7a9p-3
1737=0x1.01f6be601306cp-1
1738=0x1.36234d5b8361cp-6
1740=-0x1.7848e07aaceebp-2
1741=-0x1.3578cf59e040dp-5
1742=0x1.915c532e78073p-2
1743=-0x1.a54a3bdd23d66p-4
1744=0x1.fcc968d21d2ap-5
1745=0x1.69588b942767p-4
1746=0x1.c20babbba06e5p-14
1747=-0x1.565130870c1bep-2
1748=0x1.41f9d34896039p-5
1749=0x1.f73fc042a75c9p-3
1750=-0x1.71f1d836dc4bdp-6
1751=-0x1.5e1660a195225p-4
1752=-0x1.1487a01003c61p-10
1753=0x1.b7b7bb633d58bp-5
1754=0x1.12eeb997fdc2ep-4
1755=-0x1.d2947dbb582f8p-3
1756=-0x1.16dd6d7ae0819p-5
1757=-0x1.5f3439554897cp-3
1758=0x1.a3d529775b087p-4
1759=0x1.1e09de447875p-3
1760=0x1.5f516db118981p-2
1761=-0x1.61bace3810ab6p-3
1762=0x1.cda833bb8c3dep-3
1763=-0x1.f7049b45f5b67p-4
1764=-0x1.9a36de5855ab7p-3
1765=0x1.01fba528824d1p-1
1766=0x1.3673ea4c5b9f6p-6
1768=0x1.6015d282e1786p-2
1769=0x1.454c88850d519p+0
1770=-0x1.ab5bd0064fdafp-4
1771=-0x1.9ddf1890c75ap+0
1772=-0x1.ec484d15955d8p-6
1773=-0x1.24373f200264ap-2
1774=0x1.18609626f3d11p-1
1775=0x1.0274d196c7636p-4
1777=0x1.e4a858460df4fp-1
1778=0x1.6859a4686e323p+0
1781=0x1.d602fafff67a2p-3
1782=-0x1.307860ae15e8dp-2
1783=-0x1.dc943f8bf8056p-15
1785=-0x1.0f4852fc06a1cp-1
1786=0x1.09cf7cacda6fap-3
1787=-0x1.2453c084ef698p-7
1788=0x1.72ba6e05d2733p-5
1789=-0x1.95f92d7a47221p-7
1790=-0x1.8366cd9b4eda6p-2
1791=0x1.17809a9ba3938p-4
1792=-0x1.b95be3af9fa99p-5
1793=-0x1.b764663cf91f6p-3
1794=0x1.66924b7fa0c26p-2
1795=0x1.6c1705a5f7b6fp-3
1797=-0x1.5d286d895f683p-3
1798=-0x1.56efd69a987b4p-3
1802=-0x1.83afe61f26764p-4
1803=0x1.aa2f6c7c3cdd9p-4
1804=-0x1.532806829829p-5
1805=0x1.8f53f457ad567p-4
1806=0x1.1e1273e1df798p-1
1807=-0x1.d3ea940e9273cp-7
1808=-0x1.6fa21cb3e2886p-9
1809=-0x1.d76b74cb5c0efp-3
1810=0x1.3febbcb934051p-3
1812=0x1.ab8cb3fdd87a8p-8
1813=-0x1.6a65902efa776p-4
1814=0x1.03f16e9799d1ep-6
1815=-0x1.051f4876ab0c7p-7
1816=-0x1.d394f17416574p-17
1817=-0x1.4c8ab63ee195bp-6
1818=0x1.6e85d7cb8828cp-3
1819=0x1.a541acd85f151p-6
1821=-0x1.1f6b58544dde9p-1
1822=-0x1.adf77ae2d53ffp-5
1823=-0x1.204b1dd2d36aep+0
1825=0x1.1b0bfc29869d2p-2
1826=0x1.72df7aa63c6d3p-4
1827=0x1.4be6ec28fdc24p-2
1828=0x1.fc82f88cad891p-6
1829=0x1.9b6ac836a2246p-9
1830=-0x1.9410b20b32dd4p-3
1831=0x1.a8125a1a0b1e4p-7
1832=-0x1.689456c620381p-3
1833=-0x1.272e893af541p-2
1834=0x1.4c00b0e32b251p-1
1835=0x1.5a3e00d63128fp-1
1836=-0x1.7f405173e9beap-2
1837=0x1.0f4b95d86953bp-6
1838=0x1.dfe9bfb947921p-3
1841=0x1.8dfa073371644p-4
1842=-0x1.67f016e25715ep-2
1843=-0x1.6180b0fd7ae6ap-2
1844=-0x1.7b80e66f816c3p+0
1845=-0x1.21a6c3a55f062p-2
1846=0x1.1c412dd53381bp-3
1847=0x1.021af3c1d83fcp-2
1848=0x1.3c86cbb0740fep-3
1850=0x1.eae1686c11ea6p-2
1851=0x1.01f855b8b1b3dp-1
1852=-0x1.4fbf5edc72daap-7
1853=-0x1.7c41d5a3edb46p-9
1854=-0x1.43fa4ed7dd737p-4
1855=0x1.fea560f47506cp-1
1858=0x1.8fafcf1688201p-4
1861=0x1.5b67f8dbadea7p+0
1862=-0x1.ddc4cdf01985ep-5
1863=0x1.1ae33a4d98d8dp-2
1865=-0x1.c9a1de2a9ff61p-1
1866=0x1.f1edb6781d233p-5
1867=-0x1.e5cf790f97dc9p-3
1868=0x1.112fa03d07df9p-11
1870=-0x1.3ab7cb19d5576p-3
1871=0x1.8b2a8d93d821ap-2
1872=0x1.c4cb22d045225p-4
1873=-0x1.09883ed496b5dp-6
1874=0x1.397095b867cedp-6
1875=0x1.7a92d06db9c7p-7
1876=-0x1.677fcc2c25541p+0
1877=-0x1.31839b1dbcf5p-7
1878=0x1.194dd6a795875p+1
1879=-0x1.2ad2402e5d1c3p-6
1880=-0x1.3f3b1794888c9p-2
1881=0x1.4df8f951e400ep-2
1882=-0x1.8e83a60f3821bp-2
1883=-0x1.d305d0a73fb1p-3
1884=0x1.a7d2f78c76dfp-2
1885=0x1.6475b02579274p-3
1886=0x1.de0dbeb1c8319p-1
1887=-0x1.1ad21ffddc81fp+2
1888=0x1.84f05fff30347p-4
1889=0x1.46e051a267621p+0
1890=-0x1.57123e01a4eecp-5
1892=0x1.5d7ab981cb3a7p-3
1893=0x1.003a9e4cccc4bp-4
1895=-0x1.180512f41f3aep-1
1896=0x1.b7e7f6fdd4e98p-11
1897=0x1.6a2f016eafe84p-7
1898=0x1.758f913ca0a62p-5
1900=-0x1.1faef8dfc7dp-2
1901=-0x1.47d15c6f5f1d1p-4
1902=-0x1.af542309d97abp-8
1903=0x1.a90982164bfbcp-4
1904=-0x1.0ecad4a315e35p-1
1905=-0x1.4e4216280c9f7p-7
1906=0x1.2df1929d51c6p-3
1907=-0x1.150b1b2203af6p-4
1908=-0x1.3f3b742fb138bp-2
1909=0x1.4e013d8a19e1dp-2
1910=-0x1.8e88d96ac61ap-2
1911=-0x1.d300d29f7037ap-3
1912=-0x1.b7d746856ff12p-1
1913=0x1.61b88b6040306p-1
1914=0x1.4a956abfdd16cp-3
1915=-0x1.db6b500677942p-3
1917=0x1.422f3fb22b4ffp-3
1918=0x1.39ca67512fbc9p-1
1919=0x1.5ba6c35f7d6dp-6
1920=-0x1.bad6a56423135p-7
1921=0x1.1764f0817205ap-2
1922=0x1.21bd4e0a0d28bp-3
1923=0x1.139268ce86e99p+1
1924=-0x1.36f2aa8b9270ap-3
1925=0x1.ebb0ddfe5431p-7
1926=-0x1.1f7987db2b4c8p+0
1927=-0x1.47416f7774489p-2
1928=-0x1.d9bc5e65fb95p-12
1929=0x1.0e2e1e6c94496p-5
1930=0x1.58af7c3e38e0fp-2
1931=-0x1.c9524a32c10ccp-6
1932=-0x1.dd4100145aa1p-6
1933=0x1.b7a7062054d3cp-5
1934=-0x1.da548a4a369bfp-6
1935=0x1.4454d09623274p-11
1937=-0x1.6546b94f4455dp-8
1938=0x1.81d5bc4ed4836p-1
1939=-0x1.9b87b8979a848p-13
1941=0x1.7f1ac4364d271p-5
1943=0x1.2d8091e2a2091p-1
1944=-0x1.7dafc67951c91p-5
1945=0x1.b0551c02c6454p-5
1946=-0x1.fc69eb0ba40a9p-3
1947=-0x1.10617b3067c5ap-2
1949=-0x1.adb30e28db789p-6
1951=-0x1.bdd3285ac016p-7
1953=0x1.2b8f36fa005c2p-13
1954=0x1.662ddfcf8e265p-5
1955=-0x1.541fcb447b02cp-6
1958=-0x1.5a596ab4c5225p-5
1961=0x1.24d2114b5c7a8p-1
1962=-0x1.8bf85db9be9bfp-4
1963=-0x1.41930f7bd761p-4
1965=-0x1.01ed39ed7fc47p+1
1966=0x1.a208e8f8bd88dp-5
1967=0x1.eea87e76a7504p-4
1970=0x1.780a96f5e3609p-4
1971=-0x1.73d1b993dadfdp-7
1973=0x1.949e9def755b7p-6
1974=-0x1.3c882aa4eb2e5p-7
1975=-0x1.8092adc1decf7p-13
1978=-0x1.75c26634e1c2cp-2
1981=0x1.54f01d525c13p-5
1982=-0x1.308a3a2870814p-4
1983=0x1.5657085d53345p-5
1986=0x1.b6d17ebffbf1bp-3
1987=-0x1.6c0103e3d346p-13
1990=-0x1.9a992a4c571bap-10
1992=-0x1.1facc84c2ec6cp-2
1994=0x1.4e364f30d5b9bp-2
1996=-0x1.def853fb10895p-1
1997=0x1.954c3604ffb87p-3
1998=0x1.a2177ca287b8bp-4
1999=-0x1.005b5ec1c191p-3
2000=-0x1.e4deb32ea3f45p-6
2001=-0x1.765ded73d732ep-4
2002=0x1.4a25eafb91d7bp-5
2005=0x1.0f2d629d22a45p-2
2006=-0x1.c2971cc0e0348p-4
2008=-0x1.6d9e7fb6442dap-2
2009=0x1.0f96dafd6b3acp+0
2010=-0x1.3d13da0bd6457p-2
2011=-0x1.06f14e8a33eacp+1
2013=0x1.57bf93d07e671p-4
2014=-0x1.6f6d0a4a8af3ap-6
2016=0x1.c39c0526a615fp-2
2017=-0x1.b13aff49e2357p-6
2018=-0x1.4476e1a745d5p-3
2019=-0x1.feeba12f3b1a6p-2
2021=-0x1.52f9608c6dd07p-9
2022=-0x1.dddc1e4640a3fp-4
2023=0x1.297babec720bep-1
2024=-0x1.d2893fd38e8fbp-1
2025=0x1.e19f91869a28fp-6
2026=0x1.aa0802d3fa69p-5
2027=-0x1.48da9f19c02aep-5
2028=-0x1.def828e76279dp-1
2029=0x1.9559f00c2576bp-3
2030=0x1.a20f70afdfba4p-4
2031=-0x1.005ebf80eba86p-3
2033=0x1.2aaa1c69016aap+0
2034=-0x1.787084628c6f4p-2
2035=-0x1.d6efa4b73943bp-7
2037=0x1.60b25470604e9p-4
2041=-0x1.d77b17dabcb86p-1
2042=0x1.4a084a6338d74p-4
2045=0x1.fd27c3c96d026p-3
2046=-0x1.3fc0000d628c1p-1
2053=0x1.d9029077470bcp-3
2054=-0x1.e1947e1a934ebp-4
2055=-0x1.ca403f225d6a4p-8
2057=-0x1.662288b80e1f8p-5
2061=0x1.17c8176e23bc9p-7
2062=-0x1.202e0efd5fdb4p-5
2063=-0x1.9717e6c7a992ep-9
2065=0x1.6e4992a2e92a6p-3
2072=-0x1.94afc9d2ebc01p-5
2073=-0x1.b2c9b3f522effp-4
2074=0x1.09ce605f1c58dp-2
2075=0x1.55e2af6e77d43p-4
2077=0x1.7c67b7cee7f01p-2
2078=0x1.20dfa5b56855p-4
2081=-0x1.1bf8adc8ab7b2p-1
2082=-0x1.59f385986aa36p-4
2083=-0x1.4bcf94e466d65p-8
2085=0x1.18d7b7f07cd9cp-6
2086=-0x1.1567b02ba5301p-3
2087=0x1.d8258d2d0287dp-11
2088=0x1.865b525692379p-5
2089=-0x1.a3112ea6f4ec7p+1
2090=0x1.1b0157d17d35ep-6
2091=0x1.752568c7e8a3ep-4
2093=0x1.3adb1b9f4f46dp-5
2094=-0x1.088e8330a148cp-4
2097=0x1.8ba891ed2b42p-4
2101=-0x1.d585c7d72be6p-7
2102=0x1.cf47fd4da9794p-10
2103=0x1.645d8aca982ccp-7
2105=0x1.660da85145756p-8
2112=-0x1.fa15c69accf1p-6
2113=0x1.baa43d706b8a1p-4
2114=0x1.8f29eebb1df31p-4
2117=0x1.cbd0570321033p-5
2118=0x1.b085e1e85eb3p-3
2119=0x1.144158625a69ep-10
2121=-0x1.3eb02ac62d027p+0
2122=-0x1.8cd69b57de79ap-4
2123=-0x1.1d3eace2f4a4p+0
2125=0x1.03ee47485c391p-2
2126=-0x1.016ab6ac3ee04p-1
2127=0x1.e95475a4f6886p-2
2130=0x1.a4e49c2b970e2p-5
2131=-0x1.c32cc2c7e058ap-2
2132=-0x1.2626a2d6b336cp-1
2133=0x1.8212dd695507ep-3
2134=0x1.65eea58d11e8dp-2
2135=0x1.8ca18d2dbb67dp-7
2136=0x1.afe17f57b642fp-10
2137=0x1.3603c511c3bc6p-9
2139=-0x1.04170935921bep-1
2141=0x1.440bf4ffb830ap-8
2144=-0x1.22361d25f1ed7p-5
2145=0x1.b185722743a79p-4
2146=-0x1.202442b99ecb1p-4
2147=-0x1.f8f4a0c0f34a6p-3
2148=-0x1.432850b4e7b56p-3
2149=0x1.55d25c98a6ab9p+0
2150=-0x1.71c65d306f6a4p-1
2151=-0x1.c7d46861972dp+0
2152=-0x1.02ba85aae2483p-6
2153=0x1.5d681803c7ceep-8
2154=-0x1.86aefe7bded62p-5
2156=0x1.e464b43889b21p-11
2157=0x1.72612597b604p-5
2158=-0x1.04850e0c147p-11
2160=-0x1.2626b22a8f58ep-1
2161=0x1.81fc675cf9159p-3
2162=0x1.65f7a3da0e6c9p-2
2163=0x1.8d0631e31da7ep-7
2165=-0x1.5253021a2b678p-7
2173=0x1.fd5dfcde58a05p-4
2175=0x1.3d975a916582ap-5
2177=-0x1.7aab5785ee759p-2
2193=0x1.dfc738b2fcfdbp-3
2194=0x1.6cfbe737170d8p-10
2205=0x1.35649e1976246p-4
2206=0x1.1f8b2d0c46f8ep-8
2207=-0x1.af70bb46a0967p-1
2213=0x1.a7fb7a4b3d672p-3
2214=0x1.736e5e23a4ab9p-9
2215=-0x1.d40b986531b47p-2
2224=0x1.d4fd28b6101c9p-4
2226=-0x1.47e9f323b94afp-2
2227=0x1.c4aaa1f3ee61ep-5
2229=-0x1.3e52cf88313c4p-5
2232=-0x1.21d5fb646b6bcp-5
2233=-0x1.417b32bf1943ap-12
2234=-0x1.1ea9016aab45ap-2
2235=0x1.b745a0a0c9101p-2
2236=0x1.644c3d5a8f4c9p-3
2237=-0x1.5c10581bb1454p-10
2238=-0x1.557cd449fff33p-11
2239=-0x1.26cc1bede74fap-2
2245=0x1.e7a4d756f09f3p-4
2246=-0x1.54894ef307b0ep-5
2253=0x1.414ca6fb4c2c4p-2
2254=-0x1.2507a807d8d48p-10
2265=0x1.1815895fd252ep-6
2266=-0x1.3aefa255b7068p-10
2273=0x1.e5712530b6b4ep-6
2275=-0x1.1cecf385c51b8p-2
2279=0x1.3a4139e8471fdp-1
2283=-0x1.750a3a9ae6116p-9
2285=-0x1.9a09baccc45c3p-7
2286=0x1.ec880043d1c73p-8
2293=0x1.f6b6587f2f3e4p-9
2294=0x1.84f8feb65f5e7p-5
2305=0x1.0240c168096eap-8
2306=-0x1.8a57340927ed4p-7
2307=0x1.3e696bfad8e7cp-3
2313=-0x1.9794945be41aap-5
2314=-0x1.843e6c0483d1bp-4
2315=-0x1.06580d5e4bea6p-2
2317=-0x1.17d259b00aed1p-3
2318=0x1.8fe5ff877883ap-2
2319=0x1.0129daeaddc5ep-3
2321=0x1.06fcd3b3ef902p-2
2322=-0x1.52f579b5c3df6p-2
2323=0x1.f5c134275741ep-3
2324=0x1.17712a635e57cp-3
2325=-0x1.b701f44c16fefp-2
2326=0x1.84be3225390c7p-1
2327=-0x1.ffd016aa2914p-1
2328=0x1.1ed69f484fd6fp-2
2330=-0x1.52648ba7e01b8p-2
2332=-0x1.723e21f7122bfp-2
2333=-0x1.d4decc30e828dp-6
2334=0x1.567b7bdb97afcp-2
2335=0x1.2dfd11c1126c8p-3
2336=-0x1.69f66083a31d2p-9
2337=0x1.66e6c02925c63p-4
2339=-0x1.cc5c65be96c89p-8
2340=-0x1.7af741ce858c6p-6
2341=-0x1.27f8f6c382a52p-2
2342=0x1.e787ae508e615p-4
2343=0x1.92a0010841411p-3
2344=0x1.2321cbc16d651p-5
2345=0x1.b700999655f1ep-3
2346=-0x1.70b4bd8fcfdcdp-3
2347=0x1.3722fac456965p-4
2348=-0x1.1df33587b5cep-6
2349=0x1.65abdfc26d072p-5
2350=-0x1.2b24576d724f6p-4
2351=-0x1.37f3d4b1a1d08p-11
2353=0x1.1ac971a29f595p-6
2354=-0x1.04a55c87a8331p-5
2355=0x1.0366fcfff675fp-3
2361=0x1.faece62486711p-5
2362=-0x1.a292d3fed4a0ep-6
2363=0x1.261b81cd08b3dp-2
2367=-0x1.44cf443ad8d5fp-5
2373=-0x1.f642ed816cf99p-1
2374=0x1.857e160f9e7fp-3
2375=0x1.7426f47f10ab7p-3
2381=-0x1.33284c433f907p-1
2382=0x1.55cd7b856cc66p-1
2383=0x1.05789d599c01ap+0
2385=0x1.1e710ed6faef4p-7
2387=-0x1.a407ef3d34522p+0
2393=-0x1.4d5b0ddc7061bp-6
2394=0x1.9231bf0f388f4p-5
2395=-0x1.3196ac18be3a3p-7
2401=-0x1.03d08da74abf3p-6
2402=0x1.370374f8a261cp-3
2403=0x1.8ec19e9519c29p-4
2407=-0x1.46a1e5ff2b128p-2
2413=-0x1.b750aa821d519p-4
2414=0x1.ae5f547fbf7f8p-15
2422=0x1.68c2c3b7e655fp-10
2433=-0x1.f12e264ea23eep-5
2434=0x1.1f2808c93e06ep-4
2441=-0x1.8c93878c52fa3p-6
2442=0x1.4863e8b6ddcecp-3
2443=0x1.d42350d4be53p-6
2453=0x1.2013d475bba77p-2
2454=-0x1.5b8d11ecd57fcp-3
2455=-0x1.5054d07603c6bp-8
2461=0x1.1a320844b2f38p-2
2462=-0x1.723ae8c81c77p-4
2463=-0x1.217ea9943213ep-4
2473=0x1.3b4498e7e2d84p-7
2474=0x1.a5125a2d11939p-6
2475=-0x1.66d56bb8026dcp-4
2481=0x1.30ca413ba62c9p-6
2482=0x1.08e30866cd496p-4
2483=0x1.5060cfe6302e2p-2
2485=-0x1.b504813578a72p-9
2487=-0x1.9b274dd5707d4p-1
2493=0x1.a56cb9a75cb31p-6
2494=0x1.fad3c4baf075dp-6
2495=-0x1.29613496b4bf9p-3
2496=0x1.e4507c8d4866cp-6
2497=0x1.14059d11885d1p-2
2498=0x1.2751aee05b21bp-5
2499=-0x1.c945ffc52b83ap-5
2500=-0x1.056d44d28c43p-1
2501=0x1.c22cf5869264p-2
2502=0x1.81ea2aa7eacb6p-4
2503=-0x1.930288f624a78p-3
2505=0x1.da6f92199fb4fp-2
2506=-0x1.4968859686d06p+0
2508=0x1.4b65f3ebc6e3bp-4
2509=0x1.24a257c3fcfccp-5
2510=-0x1.767c778c35d0cp-5
2511=-0x1.a7afa39d9a76cp-6
2512=0x1.2320155f1617p-1
2513=0x1.f74103f949d5fp-6
2514=-0x1.1596df86734e5p-3
2515=0x1.0624aad1f1289p-3
2516=0x1.0a4647986ad69p-6
2517=0x1.4b4c2b0f79448p-4
2518=-0x1.5958c484c711cp-6
2519=-0x1.103335ac2a3edp-2
2521=-0x1.fc52b5d04d7d1p-5
2522=0x1.1c6c03fc6b8p-1
2525=-0x1.12206de50fd55p-6
2529=0x1.a33c06c189e7p-5
2531=-0x1.cf9fa59ca8812p-12
2533=0x1.a4397b90aecbp-8
2537=-0x1.09cd7ed9b5b33p-3
2538=0x1.6921ca85b1541p-1
2540=-0x1.b97a1ad4da944p-2
2541=-0x1.9437de1b42d12p-6
2542=0x1.6ed0a391ee9e5p-3
2546=0x1.905bcb9bf686cp-4
2547=-0x1.1439a5f9a7673p-13
2549=0x1.4d6c1634170f3p-4
2550=-0x1.e104c09551d5bp-4
2553=0x1.7971b92473dd3p-6
2554=0x1.437516c23b942p-4
2555=0x1.234bd100ef802p-8
2557=-0x1.3a4eb899e2317p-6
2558=0x1.e8229128d0b37p-6
2561=0x1.721654bd44ba7p-4
2562=0x1.d65a329899b7p-3
2563=-0x1.5351ffc0a296cp-6
2566=-0x1.2bbf34e9bb631p-7
2569=0x1.3af0f4dc01cb2p-5
2571=0x1.687ded249d46cp-2
2573=0x1.5e2bb3f4a4505p-2
2574=-0x1.20f1f58193e1bp-5
2575=-0x1.c954cea934386p-3
2577=-0x1.100467ae94fe2p-1
2578=0x1.1916334d3f22p-2
2579=-0x1.35852e2d1ab38p-8
2581=0x1.fa41335e09d81p-5
2582=0x1.4a44dec191398p-5
2583=-0x1.4c0ce6389d301p-6
2585=0x1.3bdfb3f2aa0ddp-2
2586=-0x1.2f532c6d1be6ep-9
2589=0x1.76ccae5b35342p-6
2590=-0x1.131e1e962d0fcp-2
2591=-0x1.1ca29ecf0169fp-1
2593=-0x1.63945f945e53p-8
2594=-0x1.332a2a336428dp-3
2595=0x1.3fef2400f3dc5p-4
2597=-0x1.3f752566a22efp-1
2598=0x1.418c612637a8dp-1
2599=-0x1.3d4a191c21f4bp-10
2601=0x1.b4d738c09685bp-8
2602=0x1.9226586d9d7f6p-3
2603=-0x1.f38d8bbe927b5p-7
2605=-0x1.29c788ca7838dp+1
2606=0x1.10202d52a41a8p+0
2607=0x1.a1dc6048d212cp-7
2609=0x1.9575abfd1d0d7p-3
2610=-0x1.8aea1f678780ap-2
2611=-0x1.23d52da450787p-2
2613=-0x1.cf5ee1b12b37dp-4
2614=0x1.8a36da7677cacp-6
2615=-0x1.6795a806a4816p-3
2616=0x1.3bd0d53382524p-4
2617=-0x1.24163647f4c6dp+1
2618=0x1.10ba65dd8f7d8p-2
2619=0x1.d967035f47134p-8
2620=0x1.0e05bb13c4f92p+0
2621=-0x1.106fc1ed06594p-7
2622=-0x1.c07c74acf2abbp-3
2624=0x1.50d4a28c66955p-2
2625=-0x1.1e5ab1e21a0f7p-6
2626=0x1.f50881e41a1cbp-6
2627=-0x1.5bef43451968cp-5
2628=-0x1.ce8420cec5c12p-5
2629=-0x1.cb4be9500bed8p-8
2630=0x1.bc5622abc90aap-5
2631=-0x1.51e936c8d8243p-7
2633=0x1.230926affbd7bp-2
2634=-0x1.59f50303643acp-1
2635=0x1.c685211603681p-4
2636=0x1.654d1495cd6bcp-12
2637=-0x1.228c85645b95bp-5
2638=0x1.454e7376d1886p-9
2639=-0x1.28f14813ea702p-9
2640=-0x1.91cafb4ddd8ddp-3
2641=0x1.db0a88dc917a1p-2
2642=-0x1.c5ad0a47c7178p-4
2643=0x1.69a34d7b8c568p-8
2644=0x1.927a50f4b38dep-6
2645=0x1.40e778c183c79p-8
2646=0x1.8c461c22420b8p-10
2647=-0x1.4ea61dcf2604fp-3
2649=0x1.6b49c783f30e8p+0
2650=-0x1.3dd898aeff6dep+0
2653=0x1.7dec836f10f82p-6
2657=0x1.bc829e3a2a6dcp-3
2658=-0x1.a1444527e1458p-3
2659=-0x1.905ce45c86d8bp-7
2661=0x1.1642d78e351a4p-2
2662=-0x1.00a20f3a2cd15p+1
2663=0x1.1a46f2c15f0adp-5
2665=-0x1.8dd2f569a50d9p-1
2666=-0x1.597f54d728dap-5
2669=0x1.dede0f36674fap-1
2670=-0x1.a3b0b84963948p-2
2677=0x1.b8854c75dd6adp-11
2678=-0x1.81a2742f95f51p-4
2681=0x1.24f05d0ecfc69p-2
2689=0x1.b06a2fa958565p-1
2690=-0x1.bfa239afb57cep-2
2691=-0x1.21c4c267a42bcp-4
2693=0x1.b6fb969b60f89p-5
2697=0x1.a6ab839196716p-6
2698=-0x1.8fae931f02f3fp-3
2701=0x1.75ff0dffdb6f9p-3
2703=-0x1.6e57f9ba6333ap-4
2708=-0x1.527acc4974875p-2
2709=-0x1.93b70900705d8p-12
2710=0x1.f31f7961a09bep-10
2711=0x1.868ab7a21a5f6p-6
2713=-0x1.91b046aca7p-1
2717=-0x1.eeb91e4b10b41p-3
2718=-0x1.08eea4829b12p-20
2719=0x1.7a4df96f69d9p-6
2721=0x1.1867cfecffe0ep+0
2722=-0x1.08938480e1ca3p-4
2724=-0x1.291e2ed41e85fp-2
2726=0x1.79b48d2ee357fp-2
2727=0x1.2f46477bd21fep-6
2729=0x1.99847d4489434p-9
2737=-0x1.255c1ef244698p-3
2739=0x1.0840e8734811dp-4
2741=0x1.a3bf670a37a4fp-2
2743=-0x1.3386f552e195dp-1
2749=-0x1.242464aa1fd49p-5
2750=0x1.752b64bac9a95p-4
2757=0x1.f06d8350f8e83p-7
2758=0x1.19ab843228a72p-3
2761=-0x1.903ea100ec2ecp-1
2763=-0x1.8bf3baba510b6p-9
2766=-0x1.2ba98f555756p-9
2769=0x1.e00fe8d6d9c9fp-3
2770=-0x1.c863f3d081b4p-3
2771=0x1.31b2012e702e3p-4
2777=-0x1.0e0289f24c8ccp-6
2778=0x1.294c4c4992c13p-3
2779=-0x1.95d3c0cc0ebf4p-9
2781=-0x1.31158f4dba8c3p-5
2783=-0x1.cbcf4f77c8144p-4
2785=0x1.b436f3d61a15ep-3
2786=-0x1.ee97b61e20a5bp-4
2787=0x1.2167bfa74c852p-2
2789=0x1.df242cc62b945p-6
2790=-0x1.dcf317b6993cap-7
2797=0x1.1f297b339c641p-5
2798=-0x1.f72daa2aec6dbp-9
2801=0x1.e49a90ac467dfp-6
2809=0x1.424d415aaf2d6p-10
2810=-0x1.dcbc81ade4d66p-13
2817=-0x1.985765226a02ap-5
2819=-0x1.606844d2d3e4ep-9
2821=0x1.7356ce7310746p-1
2823=0x1.525ffae4f3e2ap-11
2828=0x1.069f7500e1ee2p-1
2829=-0x1.85bfd1bc5d689p-6
2830=-0x1.520b779ee27a3p-7
2831=-0x1.b312694f52654p-4
2832=0x1.0152704b9068bp-6
2833=0x1.9c0f5c5fcc9ffp-6
2834=-0x1.be6954d04e5dp-5
2835=0x1.7bd018e2deb3dp-7
2836=-0x1.7a90548b565dbp-3
2837=0x1.07215b25c41eap-3
2838=0x1.c52cd8230a386p-4
2839=-0x1.878d947acd316p-1
2840=0x1.39ebb65adedbap-3
2841=0x1.0bc3fcf30ff92p-1
2842=-0x1.c7aac593e4373p-3
2843=-0x1.06b5aac7f1443p+0
2844=0x1.94b6c796e49d3p-7
2845=0x1.495e9921eebf9p-5
2846=-0x1.5e8d51a6eb751p-4
2847=0x1.0dbad3878320cp-5
2848=0x1.490402fa71e3cp-3
2849=-0x1.b6fb93e753c66p-6
2850=-0x1.31e49db1ba05bp-5
2851=0x1.435f55b2e2df8p-2
2852=0x1.0cc5d99f87a9bp-3
2853=0x1.0a4cd2e450b85p-7
2854=0x1.d27b11b437611p-5
2855=-0x1.8f9b86a1592a8p-2
2857=0x1.5ce8e96f4ab1cp-2
2858=-0x1.dbefe32ae6a0bp-3
2865=0x1.1406538571ac7p-1
2866=-0x1.c41b878e7867ap-3
2867=0x1.2b9d233724dafp-1
2871=-0x1.058898e8b171cp-1
2877=-0x1.46dd927806706p-4
2878=0x1.b947137352aa6p-5
2881=-0x1.1d9856c6e87bap-14
2885=0x1.29f865964f234p-6
2886=-0x1.63cdc2df22701p-8
2887=0x1.eafc6dfe1601dp-4
2889=-0x1.0060713b42214p-4
2890=0x1.fac157795660cp-3
2891=-0x1.7ab7d5b1be33bp-5
2897=0x1.5983b08d0f5a4p-4
2898=-0x1.58c25c34e4a8cp-4
2905=0x1.5d51249b3b732p-2
2906=-0x1.f4bc2db450f2dp-5
2909=-0x1.1c37b4c9e859dp-3
2917=0x1.8422b21cf0a9bp-6
2918=-0x1.67d15095975bep-6
2919=-0x1.cbc675f0c9e16p-9
2925=0x1.dbc485b7ba3b5p-4
2926=-0x1.9a01b62f30066p-9
2927=-0x1.b2476ac5b0e8bp-7
2929=-0x1.7a070470a7306p-3
2938=0x1.33f83c1ce6d52p-10
2941=-0x1.596227c7293eep-4
2945=-0x1.37a4acba5b96p-6
2946=0x1.681b9314aaedap-4
2947=-0x1.6baefd52abd35p-6
2949=0x1.acb397eced225p-2
2950=-0x1.6c3692a6b585cp-3
2951=0x1.07c7dee8a39d1p-2
2957=0x1.3c0f0e74b6fa5p-2
2958=-0x1.3f314d9bfad51p-3
2961=0x1.1f3aca0318c9ap-9
2965=0x1.de4743db60b3ap-3
2966=-0x1.047ac97062bbap-3
2967=-0x1.f8913913679fp-11
2976=0x1.b8e23b240495cp-7
2977=-0x1.263b5ad9237fbp-3
2978=0x1.e93bc263c35bfp-5
2979=0x1.5d70bc1468a6ap-7
2984=-0x1.b72b589d30847p-10
2985=-0x1.c55459347c713p-3
2986=0x1.1f5251b92a8e1p-4
2987=-0x1.18e85ca7ed72bp-3
2989=0x1.dcac552de3ea3p-2
2990=0x1.6d755a825ebep-5
2991=0x1.2cbf8f8827195p-6
2992=0x1.1bbadfd27a04p-5
2993=-0x1.35e0db0922c72p-6
2994=-0x1.13d193cb3235ep-4
2995=0x1.b3bd1fc09af58p-5
2997=0x1.09246b8b8aaa2p-6
3005=0x1.a1b25fa67c5e7p-5
3009=0x1.6a846f1bdc40ap-9
3010=-0x1.4962a4bec4143p-5
3017=-0x1.ff20013f4ea13p-8
3018=0x1.ecd027adc44bep-8
3025=0x1.7057eb7ba0e3cp-8
3026=0x1.15ea4f89a72c3p-10
3027=0x1.1f15b6c325ebfp-4
3031=-0x1.21d7a591f98a1p-5
3036=0x1.194074cdaa645p-4
3037=0x1.43b690ddb883ap-9
3038=0x1.351332b6b6ccep-6
3039=-0x1.c90d78c0bf5e2p-5
3040=-0x1.92419ffd252d8p+0
3041=0x1.b642b1726f71dp-3
3042=0x1.d7e654a015926p-8
3043=-0x1.4ec4f8ea73578p-5
3045=0x1.3fb3ee37adab9p-6
3046=-0x1.be73daedfb594p-7
3047=-0x1.0b4e287d7b3d4p-14
3048=0x1.ec8ac85d5ddfp-8
3049=0x1.1b40659436019p-1
3050=-0x1.067a0a5a10736p-1
3051=-0x1.f5a0e8cdf18cap-2
3052=0x1.38b817f01369dp+0
3053=-0x1.2160faeb7f565p-2
3054=0x1.b2dbee3d992f2p-9
3055=-0x1.c8152b0ffc161p-2
3057=0x1.090f207a71615p-3
3058=-0x1.2d7295989abaap-2
3065=0x1.289b79d41c34p-1
3066=-0x1.f16153e3842cep-3
3069=-0x1.86633d1a2cc57p-4
3078=0x1.7ce4a85ebb586p-11
3085=0x1.49c2ab0f424cdp-3
3086=0x1.18e2a786e07d2p-9
3089=-0x1.e1eb94fe26e2ep-3
3097=0x1.4740d8bfa73a4p-5
3098=-0x1.b129081794935p-10
3099=-0x1.2914ae2971943p-4
3105=0x1.906001dc63f95p-4
3106=0x1.b3e773378c436p-9
3107=-0x1.83d7bf5c5db0bp-3
3117=-0x1.1549a3b5fbe1cp-12
3118=0x1.32d1e6f64d609p-7
3125=0x1.e48c30d9f40ecp-7
3126=0x1.c5b5ee2b51757p-6
3129=-0x1.2f04e9ff0c981p-4
3137=-0x1.e163c5ed15354p-6
3138=0x1.2c03bebe44f6bp-4
3139=-0x1.f0e5fbf5288ddp-7
3145=-0x1.a69ba99d54084p-15
3146=0x1.0f55339f5e4fp-3
3147=-0x1.8429146664764p-7
3157=-0x1.11f8e8187ace2p-7
3158=0x1.cebde0fa31a84p-9
3159=0x1.1cf0780de1c1dp-7
3165=0x1.65be06b2a3f35p-5
3166=0x1.235b32af7c04ep-8
3167=0x1.33e982cec635ap-4
3169=-0x1.306c3b6f0089dp-1
3170=0x1.37fc5d3b4047fp-14
3177=0x1.d28ec79eae303p-6
3185=0x1.a00a47e84656bp-4
3189=-0x1.4263c2d9f1f14p-8
3197=0x1.ad66eb5df48fbp-4
3198=-0x1.21766f4a7d4dep-4
3205=-0x1.41c72b9312f3p-10
3206=-0x1.5b58ea5046f4cp-9
3209=0x1.87456f1f5fa19p-3
3217=0x1.d70866d348904p-3
3218=-0x1.559aba4f7a2d5p-6
3221=0x1.4303c15429642p-3
3225=0x1.869e05f7bbf26p-7
3226=-0x1.5d4bb91e23cd9p-5
3229=-0x1.5c833394943e7p-4
3236=-0x1.93a79464e2801p-1
3237=-0x1.3d10d4ba2c65bp-7
3238=0x1.ce9ac50a02e5ep-7
3239=0x1.0fdd573cfe7d8p-2
3240=0x1.3a4c3bf7aeb41p-6
3241=0x1.8a2d2feb0892bp-5
3242=-0x1.607198fc8da1ap-5
3243=-0x1.057caf8ba1ae9p-7
3245=0x1.a9f8ea38d0d71p-1
3246=-0x1.8a19ab4c0a93bp-3
3247=-0x1.d934a7d260b52p+0
3248=0x1.da098d7d3ec01p-6
3249=0x1.82912e38d4e0ep-3
3250=-0x1.4955898bfd82ap-3
3251=-0x1.d2cc8efa3585dp-7
3253=0x1.f6b5f53f6dc8dp-5
3255=-0x1.4ea247f92ba3p-6
3261=0x1.8a9f052d2b212p-2
3262=0x1.457e71ee06f66p-6
3263=-0x1.4ebf355ba15edp-6
3265=-0x1.2cec25f6275d9p-4
3266=0x1.6b26174115f35p-13
3270=-0x1.7a65fb1762932p-1
3273=0x1.f548543f8721ap-6
3274=-0x1.e776accf8c65dp-6
3275=-0x1.30a336f44e79p-12
3281=0x1.1450fa37ca093p-1
3282=-0x1.730329be9b00fp-5
3285=-0x1.ff0031bbffc4bp-3
3286=0x1.84601658c616cp-1
3287=0x1.c3f019768ad7ep-3
3290=-0x1.2c346c2e6d259p-2
3291=-0x1.96cb57737cfa8p-3
3293=0x1.02d18691969fdp-3
3294=-0x1.04aedcecfd4dap-5
3295=-0x1.36676fd057544p-2
3301=0x1.60f2c003f0678p-2
3302=-0x1.7998af9f5c54cp-5
3305=-0x1.1ac439362d77p-2
3309=0x1.163882e1e7926p-3
3313=0x1.89a50a609a62ep-1
3314=-0x1.06f85f9512d66p-2
3317=-0x1.2900b80e0de84p-15
3319=-0x1.cd117ae0df187p-4
3321=-0x1.6451029de8081p-12
3322=-0x1.3edc5028b743ep-3
3325=0x1.e8c909243c93dp-4
3327=0x1.9e0742e724efep-7
3333=-0x1.697415d0edb45p-5
3334=0x1.18e3b0301a8c9p-2
3335=-0x1.85e267ea48a65p-5
3341=-0x1.146168252834cp-8
3342=0x1.6eef84eb33c18p-3
3343=-0x1.dfc3bf6d45f6p-5
3347=0x1.23c0203117ed9p-8
3353=-0x1.ccf24313243d5p-4
3354=0x1.0dc38ab1800afp-3
3355=0x1.89b9c91bc216bp-4
3361=-0x1.13e09f7d6a3eap-5
3362=0x1.05fb4fe8517f4p-2
3363=-0x1.b92b07c271197p-4
3365=-0x1.ac28a706cac6ep-3
3366=-0x1.47440fc6ad5f7p-8
3367=0x1.49db81263d1cdp-3
3369=0x1.2ccd459ac9c62p-1
3370=0x1.4d4fab1ae580fp-4
3371=0x1.19938ed4ccdbbp-5
3372=0x1.ced059617fd69p-5
